svm_type c_svc
kernel_type rbf
gamma 0.5
nr_class 2
total_sv 995
rho -0.52643370259287925
label 1 2
probA -7.3916125509367321
probB 0.92122422873585608
nr_sv 619 376
SV
0.47265625 1:2214508 2:1310720 3:152410 4:823014 5:60964 7:30482 8:579158 9:60964 12:60964 13:60964 15:182892 16:487712 17:1144594 18:699558 19:60964 20:152410 21:30482 24:60964 25:243856 26:152410 28:304820 29:396266 31:670604 32:701086 33:70108 34:35054 49:245378 50:35054 
0.47265625 1:1183887 2:801800 3:185479 4:768413 5:132485 6:26497 7:52994 8:397455 9:52994 11:26497 12:26497 13:52994 14:26497 15:26497 16:185479 17:921743 18:105988 20:105988 21:52994 22:26497 23:26497 24:105988 25:1059880 26:105988 28:79491 29:529940 30:132485 31:185479 32:529940 33:78078 34:78078 49:351351 50:78078 
0.47265625 1:2023114 2:516653 3:87285 4:174570 5:145475 6:29095 7:58190 8:174570 9:145475 10:29095 12:145475 13:203665 14:29095 15:87285 16:349140 17:604227 18:189262 20:145475 21:87285 22:145475 24:174570 25:232760 26:145475 27:145475 28:290950 29:232760 30:87285 31:640090 32:1076515 33:72882 34:109323 49:291528 50:145764 
0.47265625 1:1600473 2:1086503 3:49826 4:697564 5:74739 6:74739 7:24913 8:448434 9:124565 11:24913 12:74739 13:74739 15:149478 16:323869 17:917504 18:456056 19:24913 20:99652 21:124565 24:49826 25:473347 26:99652 27:99652 28:99652 29:398608 30:74739 31:523173 32:747390 33:81246 34:40623 49:487476 
0.47265625 1:1781384 2:686600 3:54928 4:851384 5:54928 6:27464 8:302104 9:27464 10:82392 12:82392 13:82392 14:27464 16:54928 17:752136 18:384496 20:192248 21:82392 22:54928 23:27464 24:54928 25:659136 26:274640 28:192248 29:137320 30:54928 31:109856 32:357032 33:152288 49:380720 
0.47265625 1:1111197 2:616295 3:214683 4:736056 5:184014 6:30669 7:92007 8:981408 9:92007 12:30669 13:153345 14:30669 15:61338 16:368028 17:218881 18:131072 19:30669 20:61338 21:30669 22:30669 23:30669 24:184014 25:460035 26:30669 27:30669 28:276021 29:1012077 30:30669 31:429366 32:858732 33:34867 34:34867 49:278936 50:69734 
0.47265625 1:1933266 2:1173030 3:148536 4:1151154 5:111402 6:37134 7:37134 8:668412 9:111402 10:37134 12:37134 13:37134 14:37134 15:74268 16:259938 17:2075184 18:633484 20:297072 23:37134 24:74268 25:408474 26:185670 27:37134 28:148536 29:259938 31:74268 32:557010 34:56804 49:56804 50:56804 
0.47265625 1:2597564 2:1570992 3:166180 4:764428 5:99708 8:299124 9:99708 10:132944 12:99708 13:33236 14:66472 15:33236 16:299124 17:1309784 18:463432 20:66472 21:166180 22:66472 24:265888 25:465304 26:199416 27:99708 28:166180 29:398832 30:99708 31:299124 32:731192 33:129200 34:64600 49:290700 50:193800 
0.47265625 1:1558100 2:747104 3:55704 4:1169784 5:139260 7:27852 8:334224 9:139260 10:55704 11:55704 12:55704 13:27852 14:83556 15:27852 16:139260 17:1327096 18:242480 19:55704 20:111408 21:194964 22:55704 24:167112 25:612744 26:139260 28:167112 29:194964 30:167112 31:111408 32:473484 34:37684 49:414524 50:75368 
0.47265625 1:983040 2:506472 3:18611 4:390831 5:93055 6:18611 7:55833 8:986383 10:18611 11:18611 13:55833 15:130277 16:372220 17:421530 20:55833 21:18611 24:55833 25:409442 26:37222 28:18611 29:949161 31:204721 32:446664 33:46925 34:46925 49:328475 50:93850 
0.47265625 1:2142876 2:1833036 3:77460 4:619680 5:51640 6:103280 7:25820 8:361480 9:129100 10:25820 12:25820 13:25820 16:103280 17:981068 18:432932 19:51640 20:129100 21:25820 22:25820 25:464760 26:206560 27:25820 28:129100 29:568040 30:180740 31:180740 32:542220 33:39716 34:39716 49:397160 50:79432 
0.47265625 1:2553508 2:1268517 4:370572 5:247048 6:30881 7:154405 8:308810 9:30881 12:154405 13:30881 15:30881 16:185286 17:1830545 18:578502 19:61762 20:339691 21:61762 22:61762 23:30881 24:92643 25:370572 26:123524 27:30881 28:154405 29:154405 30:92643 31:339691 32:988192 33:69310 34:69310 49:207930 50:34655 
0.47265625 1:2044595 2:1059504 3:88065 4:616455 5:117420 6:58710 7:58710 8:88065 9:88065 12:58710 13:117420 15:146775 16:264195 17:761179 18:402093 19:29355 20:293550 21:88065 22:29355 23:58710 24:176130 25:322905 26:146775 27:29355 28:117420 29:264195 30:58710 31:469680 32:763230 33:72362 49:253267 50:72362 
0.47265625 1:1402500 2:1222668 3:222852 4:986916 5:63672 6:95508 7:95508 8:1114260 9:63672 10:95508 11:31836 12:63672 14:63672 15:63672 16:222852 17:996088 18:267736 19:31836 20:95508 21:95508 22:31836 24:95508 25:636720 26:95508 27:95508 28:159180 29:859572 30:31836 31:509376 32:732228 33:202200 34:67400 49:269600 50:67400 
0.47265625 1:1208864 2:558932 3:57048 4:1083912 5:142620 6:85572 7:28524 8:456384 9:199668 12:57048 13:28524 16:228192 17:994588 18:85572 20:228192 22:57048 23:28524 24:114096 25:770148 26:57048 28:142620 29:627528 30:142620 31:285240 32:484908 33:111036 49:222072 50:37012 
0.47265625 1:2174588 2:1515728 3:33118 4:430534 5:33118 6:33118 7:66236 8:99354 10:33118 12:66236 15:33118 16:66236 17:1648200 18:923104 20:132472 21:33118 22:99354 24:165590 25:1225366 26:66236 28:198708 29:331180 30:99354 31:132472 32:264944 33:32418 49:421434 50:64836 
0.47265625 1:2272192 2:2414256 3:34142 4:375562 5:34142 6:68284 8:68284 9:34142 10:68284 16:34142 17:2565730 18:1198884 19:34142 20:273136 22:34142 24:102426 25:751124 26:136568 28:102426 29:34142 30:68284 32:170710 49:188364 50:31394 
0.47265625 1:950352 2:480544 3:81960 4:655680 5:191240 6:27320 7:54640 8:1202080 9:54640 10:27320 11:27320 12:27320 13:54640 15:109280 16:245880 17:835544 18:398584 20:81960 21:27320 23:27320 24:27320 25:437120 26:81960 27:27320 28:136600 29:1256720 30:27320 31:519080 32:601040 33:191080 34:38216 49:267512 
0.47265625 1:2258844 2:2650628 3:24397 4:48794 5:73191 6:73191 8:146382 13:48794 15:24397 16:219573 17:2080410 18:884020 20:73191 21:48794 22:24397 24:48794 25:829498 26:73191 27:48794 28:195176 29:341558 30:73191 31:48794 32:268367 33:164556 34:82278 49:575946 50:123417 
0.47265625 1:865952 2:727888 3:58544 4:1141608 5:29272 6:29272 8:1492872 9:58544 10:29272 13:58544 15:87816 16:117088 17:568848 18:36264 20:87816 21:29272 24:29272 25:1229424 27:58544 29:1229424 30:29272 31:263448 32:351264 33:36264 34:36264 49:217584 50:36264 
0.47265625 1:1170382 2:743688 3:109700 4:630775 5:191975 6:54850 7:54850 8:740475 9:27425 10:54850 11:27425 12:27425 13:27425 14:27425 15:109700 16:411375 17:1155436 18:54850 21:109700 23:54850 24:27425 25:575925 26:82275 28:109700 29:959875 30:82275 31:301675 32:850175 33:114333 49:381110 50:38111 
0.47265625 1:939608 2:702300 3:24836 4:918932 5:99344 6:49672 8:720244 13:24836 16:24836 17:528448 18:74508 19:24836 20:74508 21:24836 22:49672 25:745080 27:49672 28:149016 29:869260 30:74508 31:223524 32:372540 33:122100 49:529100 
0.47265625 1:1812585 2:1391836 3:85815 4:829545 5:114420 6:57210 7:28605 8:314655 10:28605 11:28605 12:57210 13:114420 15:28605 16:171630 17:945037 18:228840 20:143025 21:28605 22:57210 24:85815 25:657915 26:228840 27:143025 28:143025 29:200235 30:85815 31:85815 32:629310 33:36931 34:73862 49:184655 
0.47265625 1:491115 2:851266 8:65590 15:1869315 16:2459625 17:622079 18:163705 29:65590 31:2131675 32:1803725 49:425633 
0.47265625 1:1588960 2:1152521 3:81381 4:759556 5:189889 6:54254 7:54254 8:108508 9:162762 11:81381 12:81381 13:108508 14:81381 15:108508 16:54254 17:901659 18:393216 19:81381 20:271270 21:81381 23:27127 24:135635 25:596794 26:54254 27:81381 28:217016 29:189889 30:244143 31:108508 32:813810 33:76818 49:652953 
0.47265625 1:1431096 2:884872 3:113632 4:1022688 5:28408 6:56816 7:142040 8:596568 9:28408 10:28408 11:28408 12:56816 13:28408 16:340896 17:1109888 18:310240 19:28408 20:85224 23:28408 24:113632 25:767016 26:85224 27:28408 28:170448 29:142040 30:85224 31:85224 32:596568 33:74256 49:371280 
0.47265625 1:1340340 2:580690 3:80346 4:1044498 5:107128 6:26782 7:53564 8:615986 9:160692 10:26782 12:53564 13:107128 15:26782 16:80346 17:586366 18:378406 19:53564 20:26782 22:53564 24:53564 25:964152 26:80346 28:241038 29:723114 30:133910 31:107128 32:428512 33:77508 34:77508 49:271278 
0.47265625 1:1157291 2:807868 3:29093 4:1280092 5:116372 7:58186 8:640046 9:29093 12:29093 13:87279 14:29093 15:87279 16:349116 17:647703 18:131072 19:29093 20:58186 23:29093 25:698232 26:87279 27:58186 28:116372 29:669139 30:145465 31:349116 32:640046 33:72886 49:364430 50:109329 
0.47265625 1:1099638 2:602403 3:108212 4:459901 5:162318 6:54106 7:54106 8:568113 9:54106 10:27053 13:54106 15:54106 16:946855 17:451515 18:235091 19:108212 20:81159 21:54106 22:27053 23:81159 24:54106 25:432848 26:81159 27:108212 28:54106 29:676325 30:81159 31:351689 32:649272 33:192415 49:654211 50:38483 
0.47265625 1:1272272 2:570600 3:93498 4:747984 5:218162 6:93498 7:124664 8:841482 9:62332 12:31166 13:31166 15:62332 16:405158 17:483510 18:62332 20:249328 21:31166 22:93498 25:654486 26:186996 27:93498 28:186996 29:966146 30:31166 31:218162 32:716818 33:34370 49:206220 50:34370 
0.47265625 1:1128464 2:895584 3:152880 4:687960 5:50960 7:50960 8:407680 9:50960 12:25480 13:25480 16:229320 17:462312 18:141976 19:50960 20:50960 21:76440 23:50960 24:152880 25:637000 26:178360 27:25480 28:127400 29:535080 30:76440 31:331240 32:560560 49:120168 50:40056 
0.47265625 1:946655 2:851968 3:91556 4:251779 5:22889 7:137334 8:892671 9:68667 10:22889 11:22889 12:22889 14:91556 15:137334 16:412002 17:829079 18:22889 19:68667 20:91556 21:91556 22:22889 23:45778 24:68667 25:297557 26:68667 28:68667 29:915560 30:91556 31:251779 32:434891 33:85294 34:42647 49:426470 50:127941 
0.47265625 1:2415466 2:1534024 4:1081860 5:72124 7:36062 8:288496 9:144248 12:36062 13:36062 17:1022568 18:904672 20:396682 25:1190046 26:360620 28:144248 29:504868 30:36062 31:36062 32:288496 33:29474 34:29474 49:383162 50:29474 
0.47265625 1:1372561 2:540303 3:91652 4:687390 5:22913 6:68739 7:68739 8:618651 9:137478 10:22913 13:22913 15:22913 16:68739 17:527491 18:216318 19:45826 20:68739 21:68739 22:45826 23:45826 24:137478 25:343695 26:114565 27:45826 28:68739 29:962346 30:114565 31:91652 32:458260 33:42623 49:170492 50:42623 
0.47265625 1:1716799 2:823181 3:94323 4:943230 5:31441 6:94323 7:62882 8:660261 9:62882 12:94323 13:31441 14:31441 15:125764 16:314410 17:1316028 18:236011 20:314410 21:31441 22:31441 24:125764 25:597379 26:188646 27:31441 28:94323 29:534497 30:62882 31:911789 32:565938 33:68190 34:136380 49:306855 50:68190 
0.47265625 1:1287430 2:449436 3:147483 4:526725 5:105345 6:21069 8:252828 9:105345 10:21069 12:63207 13:42138 15:42138 16:316035 17:449436 18:194279 20:105345 21:21069 22:63207 23:42138 24:105345 25:316035 26:126414 27:42138 28:105345 29:147483 30:105345 31:463518 32:526725 33:88934 49:400203 50:88934 
0.47265625 1:1668547 2:627899 3:43030 4:430300 6:21515 7:43030 8:365755 9:43030 10:21515 12:43030 13:43030 14:21515 15:21515 16:129090 17:282668 18:216141 20:150605 21:43030 22:43030 23:21515 24:172120 25:753025 26:64545 27:43030 28:64545 29:387270 30:150605 32:473330 33:88042 34:44021 49:352168 50:88042 
0.47265625 1:1290982 2:569432 3:131508 4:306852 5:65754 6:65754 7:153426 8:306852 9:21918 10:65754 11:65754 13:87672 15:43836 16:219180 17:634750 18:197262 19:65754 20:65754 21:87672 22:43836 24:65754 25:263016 26:65754 27:43836 28:219180 29:328770 30:109590 31:109590 32:613704 33:43618 49:436180 50:43618 
0.47265625 1:1447586 2:455474 3:24954 4:948252 5:124770 6:24954 7:24954 8:274494 9:124770 10:24954 11:74862 12:99816 13:24954 14:74862 15:24954 16:199632 17:811386 18:65536 19:74862 20:174678 21:174678 22:49908 23:49908 24:124770 25:374310 26:74862 27:99816 28:74862 29:199632 30:99816 31:24954 32:873390 33:40582 34:40582 49:162328 50:121746 
0.47265625 1:2114048 2:821632 3:30336 4:697728 5:212352 6:121344 7:121344 8:303360 9:121344 10:60672 11:60672 12:182016 13:91008 14:91008 15:60672 16:182016 17:876288 18:337408 19:151680 20:60672 21:242688 23:30336 24:91008 25:394368 26:151680 27:60672 28:394368 29:333696 30:182016 31:364032 32:970752 33:140800 34:105600 49:70400 50:35200 
0.47265625 1:1535891 2:1047765 3:30185 4:1026290 5:181110 6:60370 7:90555 8:422590 9:90555 12:30185 14:30185 15:30185 16:60370 17:1321052 18:432922 19:30185 20:120740 21:60370 22:30185 23:30185 24:120740 25:996105 26:60370 28:90555 29:603700 30:90555 31:60370 32:633885 33:70702 34:35351 49:106053 
0.47265625 1:1234416 2:765778 3:157110 4:597018 5:157110 6:31422 7:31422 8:1194036 9:125688 10:62844 12:31422 13:157110 14:94266 15:62844 16:408486 17:1049458 18:298950 20:94266 21:31422 23:31422 24:157110 25:439908 26:125688 27:31422 28:157110 29:1476834 30:125688 31:534174 32:597018 33:68228 34:34114 49:68228 50:34114 
0.4736328125 1:1227640 2:583976 3:62612 4:1033098 5:156530 6:31306 7:187836 8:1001792 9:125224 10:31306 11:31306 13:156530 16:250448 17:914580 18:327680 20:93918 23:31306 24:156530 25:594814 26:31306 27:31306 28:93918 29:970486 30:62612 31:281754 32:845262 34:34230 49:239610 
0.4736328125 1:1147042 2:821566 3:51988 4:1273706 5:25994 6:25994 8:545874 9:25994 10:25994 12:51988 16:51988 17:638506 18:77982 20:77982 21:25994 22:51988 24:77982 25:857802 26:207952 27:25994 28:25994 29:493886 30:103976 31:155964 32:337922 33:79084 34:39542 49:711756 50:39542 
0.4736328125 1:1067008 2:1208320 3:193536 4:580608 5:150528 7:64512 8:602112 9:64512 15:86016 16:279552 17:523264 18:130048 20:43008 21:21504 24:21504 25:559104 26:21504 27:43008 28:86016 29:623616 30:150528 31:408576 32:602112 33:88064 49:440320 50:44032 
0.4736328125 1:1364348 2:863289 3:128095 4:819808 5:76857 6:25619 7:51238 8:691713 9:51238 14:25619 15:25619 16:153714 17:908573 18:492715 20:128095 21:51238 24:102476 25:819808 26:51238 28:204952 29:537999 31:153714 32:307428 33:159668 49:439087 50:39917 
0.4736328125 1:1670148 2:1473540 3:24321 4:583704 5:72963 7:48642 8:705309 9:24321 10:24321 13:97284 15:97284 16:170247 17:833034 18:410110 20:97284 21:72963 22:24321 23:24321 24:97284 25:608025 26:72963 27:97284 28:72963 29:583704 30:72963 31:243210 32:437778 33:41215 34:82430 49:659440 50:82430 
0.4736328125 1:1570450 2:1386225 3:30503 4:976096 6:61006 8:366036 10:30503 12:61006 13:61006 14:30503 16:30503 17:1192031 18:305030 20:183018 21:91509 22:30503 25:1159114 26:30503 28:91509 29:366036 30:152515 31:91509 32:457545 33:175165 34:70066 49:455429 
0.4736328125 1:1270539 2:469281 3:126775 4:659230 5:177485 6:25355 7:76065 8:735295 9:50710 10:25355 11:25355 13:228195 14:25355 15:50710 16:532455 17:718961 18:120543 20:101420 24:101420 25:304260 26:25355 27:50710 28:50710 29:988845 30:76065 31:405680 32:836715 33:120543 34:120543 49:401810 
0.4736328125 1:1145044 2:644988 4:337960 5:72420 8:337960 9:48280 11:24140 13:24140 15:265540 16:700060 17:669128 18:241400 20:96560 23:24140 24:48280 25:531080 26:72420 27:48280 28:48280 29:337960 30:72420 31:844900 32:579360 33:41396 49:206980 
0.4736328125 1:2153464 2:1696092 3:29076 4:959508 6:58152 8:174456 10:29076 13:29076 14:29076 16:58152 17:1222572 18:465216 20:319836 22:29076 23:29076 24:87228 25:639672 26:203532 27:58152 28:58152 29:494292 30:58152 32:348912 33:72920 34:109380 49:656280 50:145840 
0.4736328125 1:1285276 2:801080 3:136470 4:568625 5:136470 6:22745 7:68235 8:523135 9:68235 11:22745 12:45490 13:113725 14:22745 15:113725 16:204705 17:917504 18:256746 20:45490 21:45490 23:22745 24:68235 25:727840 26:113725 27:45490 28:90980 29:750585 30:68235 31:318430 32:614115 34:85582 49:556283 
0.4736328125 1:1241878 2:586518 3:91938 4:1164548 5:61292 6:30646 7:30646 8:858088 9:61292 10:122584 13:61292 15:30646 16:153230 17:664786 18:196608 19:30646 20:122584 22:30646 24:30646 25:643566 26:153230 28:153230 29:1256486 30:30646 31:214522 32:520982 33:34890 49:104670 
0.4736328125 1:1121993 2:1657614 3:25623 4:358722 5:51246 7:51246 8:179361 9:102492 10:76869 13:76869 15:102492 16:153738 17:358722 18:435591 20:128115 21:25623 22:25623 24:25623 25:358722 26:76869 27:76869 28:51246 29:640575 30:25623 31:538083 32:512460 33:39913 34:39913 49:359217 
0.4736328125 1:1220568 2:945037 3:59382 4:771966 5:29691 6:29691 7:89073 8:890730 9:59382 10:59382 13:29691 15:178146 16:178146 17:879501 18:338909 20:89073 21:118764 23:29691 24:29691 25:861039 26:59382 28:59382 29:712584 30:29691 31:178146 32:534438 49:573520 
0.4736328125 1:2147756 2:1060644 3:63736 4:573624 5:95604 6:31868 7:63736 8:254944 13:63736 14:31868 16:31868 17:1292720 18:732964 19:63736 20:159340 21:31868 22:127472 23:31868 24:159340 25:573624 26:286812 28:382416 29:318680 30:31868 31:31868 32:254944 33:67336 49:471352 50:33668 
0.4736328125 1:1687245 2:1609127 3:66934 4:1137878 5:66934 6:66934 7:66934 8:435071 9:66934 13:33467 15:33467 16:66934 17:1348381 18:560551 19:33467 20:234269 21:33467 23:33467 24:167335 25:1439081 26:133868 29:535472 30:100401 32:502005 33:32069 34:32069 49:256552 50:32069 
0.4736328125 1:853498 2:229801 3:98559 4:689913 5:65706 6:32853 7:229971 8:952737 9:98559 10:65706 11:65706 12:32853 13:164265 14:32853 15:98559 16:492795 17:394066 18:65536 20:131412 23:32853 24:65706 25:492795 26:98559 28:131412 29:1248414 30:65706 31:755619 32:952737 33:130732 49:196098 
0.4736328125 1:1587680 2:1067744 3:32224 4:837824 7:96672 8:483360 9:32224 10:96672 13:128896 16:161120 17:972160 18:356640 19:32224 20:128896 21:32224 22:96672 23:32224 24:161120 25:741152 26:96672 27:32224 28:161120 29:418912 30:32224 31:483360 32:580032 33:33312 49:599616 
0.4736328125 1:1658736 2:431538 3:112616 4:788312 5:140770 6:112616 7:28154 8:422310 9:56308 10:84462 11:28154 12:28154 13:84462 14:56308 15:56308 16:112616 17:881062 18:197078 20:197078 21:84462 22:28154 24:140770 25:619388 26:197078 27:28154 28:140770 29:534926 30:112616 31:168924 32:534926 33:37382 34:37382 49:448584 
0.4736328125 1:836528 2:107936 4:620632 5:53968 7:107936 8:647616 9:188888 12:53968 13:107936 14:53968 15:215872 16:431744 17:508848 18:26984 19:53968 20:53968 21:26984 22:26984 23:26984 24:134920 25:998408 26:26984 27:26984 28:188888 29:674600 30:80952 31:323808 32:647616 33:38552 34:38552 49:38552 
0.4736328125 1:1696551 2:731640 3:51838 4:233271 5:51838 6:51838 7:77757 8:336947 9:129595 10:25919 11:25919 12:51838 13:77757 14:51838 15:129595 16:233271 17:1022657 18:274365 19:25919 20:103676 21:51838 23:77757 24:155514 25:311028 26:103676 27:155514 28:77757 29:544299 30:155514 31:518380 32:803489 33:39617 34:39617 49:356553 
0.4736328125 1:1010602 2:641579 3:105756 4:846048 5:132195 6:26439 7:79317 8:1295511 9:79317 12:26439 15:26439 16:105756 17:1384422 18:339215 19:26439 20:79317 21:52878 24:26439 25:634536 26:26439 27:26439 28:132195 29:1321950 30:52878 31:185073 32:528780 33:39097 49:312776 50:39097 
0.4736328125 1:2503045 2:1724437 4:24413 5:24413 10:24413 17:1831096 18:1335012 20:195304 21:24413 22:48826 24:24413 26:292956 28:73239 30:24413 32:73239 33:41123 34:41123 49:164492 
0.4736328125 1:1055308 2:159306 3:106204 4:1194795 5:159306 6:26551 7:26551 8:690326 9:26551 10:53102 12:53102 13:26551 15:26551 16:265510 17:516903 18:132755 20:106204 21:26551 22:26551 24:53102 25:637224 26:26551 27:26551 28:185857 29:610673 30:53102 31:398265 32:477918 33:38985 34:38985 49:155940 50:116955 
0.4736328125 1:923361 2:1207667 3:187110 4:1340955 5:62370 6:31185 7:31185 8:810810 9:31185 12:31185 14:31185 15:93555 16:31185 17:823474 18:227793 20:124740 22:62370 24:62370 25:686070 26:155925 29:654885 30:124740 31:873180 32:405405 33:103053 49:343510 50:34351 
0.4736328125 1:1485146 2:593521 3:61839 4:577164 5:61839 6:61839 7:123678 8:412260 9:82452 10:20613 13:82452 16:103065 17:1804873 18:372603 19:41226 20:41226 21:20613 23:41226 24:41226 25:556551 26:41226 28:164904 29:535938 30:82452 31:123678 32:618390 33:134769 49:449230 50:44923 
0.4736328125 1:1922556 2:1066278 3:217658 4:404222 5:124376 6:186564 7:62188 8:715162 9:62188 10:31094 11:31094 12:93282 13:31094 15:31094 16:248752 17:873018 18:320984 19:31094 20:93282 21:93282 24:124376 25:497504 26:186564 27:31094 28:248752 29:435316 30:248752 31:279846 32:715162 33:103326 34:34442 49:309978 50:68884 
0.4736328125 1:1224382 2:569648 3:66162 4:374918 5:110270 7:44108 8:838052 9:22054 12:66162 13:88216 14:22054 15:132324 16:419026 17:458752 18:240716 20:132324 21:22054 23:22054 24:66162 25:330810 26:44108 27:22054 28:88216 29:661620 30:22054 31:551350 32:441080 33:86964 49:260892 
0.4736328125 1:1315684 2:547788 3:25762 4:1056242 5:77286 6:51524 7:51524 8:386430 9:128810 13:25762 14:51524 15:51524 16:128810 17:519764 18:131072 19:77286 20:180334 21:51524 24:51524 25:927432 26:103048 27:25762 28:154572 29:747098 30:51524 31:154572 32:515240 33:159096 34:39774 49:357966 50:119322 
0.4736328125 1:1301066 2:672792 3:27086 4:975096 5:189602 7:27086 8:352118 9:81258 15:27086 16:27086 17:917504 18:173880 19:27086 20:81258 21:81258 22:27086 23:27086 24:81258 25:1327214 26:243774 27:27086 28:216688 29:731322 30:54172 31:54172 32:297946 33:38450 49:153800 
0.4736328125 1:1215065 2:674045 3:27051 4:459867 5:135255 7:81153 8:1541907 9:108204 12:54102 13:27051 14:27051 16:351663 17:843602 18:361982 19:54102 20:54102 21:27051 24:81153 25:892683 26:108204 28:108204 29:892683 30:135255 31:243459 32:459867 33:38485 34:38485 49:615760 50:153940 
0.4736328125 1:1544818 2:1244702 3:52236 4:783540 5:208944 6:52236 7:78354 8:600714 9:104472 10:26118 12:52236 13:78354 14:26118 15:52236 16:78354 17:1125002 18:196126 20:235062 21:52236 24:78354 25:496242 26:208944 27:26118 28:156708 29:78354 30:104472 31:104472 32:496242 33:78836 34:78836 49:670106 50:78836 
0.4736328125 1:1666853 2:994549 3:29731 4:1100047 7:118924 8:862199 9:59462 10:29731 12:59462 13:29731 16:178386 17:517575 18:237848 20:237848 22:29731 23:29731 24:208117 25:1070316 26:89193 28:89193 29:416234 30:29731 31:178386 32:386503 33:107415 49:393855 
0.4736328125 1:993388 2:603621 3:70365 4:609830 5:140730 6:70365 7:117275 8:562920 9:93820 10:23455 11:46910 12:23455 13:46910 14:23455 15:46910 16:351825 17:426329 18:131072 20:93820 21:46910 22:46910 23:23455 24:70365 25:445645 27:46910 28:164185 29:750560 30:93820 31:234550 32:656740 33:42081 49:294567 
0.4736328125 1:872747 2:455553 3:62337 4:498696 5:62337 6:20779 7:41558 8:1018171 9:103895 13:103895 14:20779 15:83116 16:207790 17:476332 18:110293 20:41558 21:20779 23:41558 24:20779 25:290906 26:20779 27:62337 28:62337 29:1059729 30:41558 31:228569 32:498696 33:89514 49:179028 50:134271 
0.4736328125 1:1348672 2:386896 3:49440 4:346080 5:24720 6:49440 7:49440 8:766320 9:24720 10:24720 12:123600 13:74160 14:24720 15:98880 16:296640 17:296640 18:139696 19:24720 20:49440 21:148320 22:49440 23:24720 24:74160 25:346080 26:148320 27:49440 28:74160 29:543840 30:173040 31:197760 32:667440 33:122448 34:40816 49:367344 50:40816 
0.4736328125 1:1141062 2:1093778 3:47284 4:756544 5:94568 7:23642 8:709260 9:23642 12:23642 13:23642 15:118210 16:260062 17:411468 18:196608 19:23642 20:189136 24:118210 25:496482 26:70926 27:47284 28:47284 29:851112 30:47284 31:283704 32:378272 33:83788 34:41894 49:418940 50:125682 
0.4736328125 1:1825984 2:513408 3:26400 4:501600 5:79200 6:52800 7:26400 8:660000 9:132000 10:52800 11:52800 12:26400 13:26400 14:52800 15:52800 16:211200 17:566208 18:237600 19:52800 20:79200 21:26400 22:26400 24:158400 25:765600 26:132000 27:79200 28:132000 29:422400 30:26400 31:105600 32:633600 33:117408 34:39136 49:860992 50:39136 
0.4736328125 1:1080808 2:495050 3:87714 4:497046 5:146190 6:87714 7:116952 8:1315710 9:29238 10:29238 12:146190 14:29238 15:29238 16:263142 17:824726 18:175428 19:29238 20:116952 21:58476 24:87714 25:497046 26:116952 28:116952 29:935616 30:58476 31:116952 32:613998 33:36298 49:254086 
0.4736328125 1:2193980 2:1559164 3:109552 4:219104 7:27388 8:54776 9:27388 10:27388 16:27388 17:1248112 18:722848 19:54776 20:54776 22:54776 24:82164 25:383432 26:191716 27:54776 28:164328 29:219104 30:246492 31:27388 32:328656 33:114444 34:114444 49:610368 
0.4736328125 1:1834942 2:1702880 3:32735 4:1309400 5:32735 7:32735 8:458290 12:32735 13:32735 17:2096228 18:720500 20:163675 21:65470 24:32735 25:1047520 26:65470 28:32735 29:491025 32:163675 33:32801 34:32801 49:229607 50:65602 
0.4736328125 1:1349376 2:763744 3:117632 4:382304 5:176448 6:58816 7:88224 8:529344 9:117632 10:88224 12:29408 13:147040 15:264672 16:735200 17:1190560 18:298272 19:88224 20:88224 21:29408 23:29408 24:147040 25:705792 26:58816 28:176448 29:735200 30:205856 31:264672 32:794016 33:72256 49:325152 50:36128 
0.4736328125 1:2449395 2:2177519 3:30775 4:769375 5:61550 6:30775 8:307750 9:30775 16:61550 17:1705696 18:877644 20:215425 21:92325 22:61550 24:30775 25:338525 26:276975 28:123100 29:92325 30:123100 32:246200 33:139044 34:104283 49:417132 50:173805 
0.4736328125 1:909002 2:458752 3:68370 4:1606695 5:136740 7:102555 8:683700 9:273480 11:34185 12:102555 13:136740 15:170925 16:854625 17:1131470 18:250808 20:34185 23:34185 24:68370 25:1504140 26:102555 27:34185 28:170925 29:717885 30:102555 31:410220 32:752070 34:31351 49:188106 50:31351 
0.4736328125 1:1173184 2:169204 3:96688 4:580128 5:145032 7:96688 8:555956 9:96688 12:48344 13:145032 15:24172 16:459268 17:479692 18:244952 20:96688 24:120860 25:604300 26:145032 28:120860 29:773504 30:24172 31:169204 32:604300 33:124092 49:289548 
0.4736328125 1:991360 2:770752 3:72000 4:1056000 5:96000 6:24000 7:96000 8:720000 9:72000 10:24000 12:24000 13:72000 14:24000 15:24000 16:264000 17:484608 18:179072 20:168000 23:24000 24:72000 25:528000 26:24000 27:24000 28:96000 29:480000 30:72000 31:144000 32:432000 33:83072 49:623040 
0.4736328125 1:1445480 2:636856 3:124200 4:447120 5:99360 6:124200 7:74520 8:372600 9:49680 12:24840 15:74520 16:248400 17:487816 18:298080 20:74520 21:124200 22:74520 23:24840 24:149040 25:223560 26:198720 27:49680 28:149040 29:198720 30:74520 31:198720 32:596160 33:40696 50:40696 
0.4736328125 1:1005862 2:624850 3:148585 4:534906 5:148585 6:29717 7:89151 8:1337265 9:59434 11:29717 12:59434 13:59434 15:208019 16:326887 17:339091 18:214121 19:29717 20:118868 21:29717 24:59434 25:1010378 26:178302 28:59434 29:713208 30:118868 31:29717 32:653774 33:71638 34:35819 49:250733 50:35819 
0.4736328125 1:1371852 2:1371852 4:731775 5:146355 6:117084 7:29271 8:819588 9:58542 10:29271 13:87813 15:29271 16:117084 17:780733 18:511595 19:29271 20:234168 21:29271 22:29271 24:29271 25:848859 26:29271 28:87813 29:731775 30:29271 31:58542 32:351252 33:108795 34:145060 49:435180 50:72530 
0.4736328125 1:1126320 2:600040 3:70644 4:470960 5:70644 6:117740 7:94192 8:423864 9:117740 10:23548 11:47096 12:23548 14:23548 15:94192 16:353220 17:741328 18:225264 19:23548 20:94192 21:70644 22:23548 24:23548 25:753536 26:94192 27:70644 28:117740 29:353220 30:47096 31:211932 32:612248 33:83976 49:587832 50:83976 
0.4736328125 1:1235850 2:1031199 3:68217 4:1023255 5:90956 6:45478 8:363824 9:90956 10:22739 11:22739 12:90956 13:22739 16:159173 17:983040 18:173869 20:113695 21:22739 24:136434 25:909560 26:90956 28:90956 29:545736 30:68217 31:45478 32:341085 33:85594 49:213985 50:171188 
0.4736328125 1:1357768 2:388594 3:177030 4:581670 5:75870 7:75870 8:986310 9:151740 10:75870 11:50580 13:50580 14:50580 15:25290 16:101160 17:166696 18:105782 19:25290 20:126450 21:25290 22:25290 23:75870 24:50580 25:278190 26:177030 27:25290 28:202320 29:834570 30:126450 31:227610 32:657540 33:120738 49:362214 50:120738 
0.4736328125 1:1335180 2:764660 3:53416 4:827948 5:26708 7:80124 8:400620 9:106832 10:53416 12:26708 13:26708 14:53416 15:80124 16:240372 17:648176 18:291320 19:26708 20:213664 21:26708 24:53416 25:1095028 26:53416 27:80124 28:53416 29:320496 30:53416 31:267080 32:587576 33:38828 49:388280 
0.4736328125 1:1815315 2:2154653 4:1212255 6:26939 7:26939 8:269390 9:53878 12:26939 14:26939 16:26939 17:1267711 18:374312 20:80817 21:26939 24:80817 25:1185316 26:296329 28:80817 29:431024 30:188573 31:53878 32:161634 33:77194 34:38597 49:926328 50:77194 
0.4736328125 1:1211588 2:560910 4:961560 5:106840 8:560910 9:106840 10:26710 12:26710 13:26710 16:53420 17:689504 18:80130 20:133550 21:26710 22:80130 23:53420 24:133550 25:774590 26:160260 28:80130 29:587620 30:186970 31:53420 32:427360 33:77652 34:38826 49:38826 50:38826 
0.4736328125 1:2093976 2:1591190 4:240642 6:53476 9:53476 10:26738 17:1858570 18:1032310 20:240642 22:26738 23:26738 24:106952 25:614974 26:294118 28:53476 29:53476 30:80214 32:26738 33:116394 34:38798 49:620768 
0.4736328125 1:1492222 2:603272 3:172245 4:895674 5:241143 6:68898 7:34449 8:757878 9:137796 10:34449 12:68898 13:34449 15:34449 16:378939 17:620082 18:137796 19:34449 20:275592 21:137796 22:68898 24:68898 25:1033470 26:206694 28:137796 29:413388 30:137796 31:137796 32:826776 49:124348 
0.4736328125 1:908992 2:491732 3:192352 4:937716 5:48088 6:96176 7:72132 8:408748 9:24044 10:96176 12:24044 13:72132 15:120220 16:144264 17:668552 18:155116 19:24044 20:72132 22:24044 23:24044 24:48088 25:793452 26:72132 27:24044 28:72132 29:528968 30:48088 31:144264 32:649188 33:248952 49:414920 50:124476 
0.4736328125 1:1032488 2:1007172 3:19164 4:689904 5:19164 6:38328 7:57492 8:402444 9:38328 11:57492 12:19164 13:76656 14:19164 15:153312 16:383280 17:789508 18:185488 20:76656 21:57492 24:38328 25:517428 26:57492 27:38328 28:38328 29:402444 31:268296 32:555756 33:139116 49:463720 50:46372 
0.4736328125 1:946756 2:451720 3:20364 4:325824 5:162912 7:183276 8:997836 9:81456 11:20364 12:61092 13:40728 15:162912 16:386916 17:196608 18:225860 19:20364 20:20364 21:20364 24:40728 25:305460 27:20364 28:40728 29:672012 30:61092 31:590556 32:692376 33:90344 34:45172 49:451720 50:90344 
0.4736328125 1:2496192 2:1393276 3:30902 4:525334 5:30902 8:123608 10:30902 13:30902 17:1832322 18:898844 20:370824 21:61804 22:30902 24:123608 25:710746 26:216314 27:30902 28:154510 29:618040 30:92706 31:30902 32:154510 33:69268 49:207804 50:138536 
0.4736328125 1:1646472 2:1284102 3:79854 4:905012 5:53236 8:452506 9:133090 10:26618 11:26618 12:26618 15:53236 16:79854 17:952194 18:458752 19:53236 20:159708 21:26618 24:133090 25:745304 26:159708 27:26618 28:159708 29:425888 30:53236 31:212944 32:425888 33:116754 34:38918 49:350262 
0.4736328125 1:2328424 2:1027936 3:93144 4:279432 5:62096 6:31048 7:31048 8:186288 9:155240 13:62096 14:31048 16:62096 17:1500536 18:355288 19:62096 20:248384 21:155240 22:62096 23:31048 24:62096 25:527816 26:310480 27:62096 28:279432 29:341528 30:155240 31:248384 32:714104 33:103464 34:34488 49:310392 50:68976 
0.4736328125 1:1481043 2:1690617 3:131425 4:657125 5:105140 6:52570 7:52570 8:657125 9:131425 12:131425 13:52570 15:26285 16:183995 17:916798 18:314361 19:52570 20:52570 21:52570 23:26285 24:52570 25:893690 26:52570 27:26285 28:78855 29:788550 30:105140 31:262850 32:604555 33:117753 34:78502 49:314008 50:117753 
0.4736328125 1:1386355 2:724733 3:279917 4:661622 5:178129 6:50894 7:76341 8:407152 9:254470 10:50894 13:25447 14:50894 16:483493 17:447947 18:298396 19:50894 20:101788 21:76341 22:50894 23:50894 24:101788 25:356258 26:76341 27:76341 28:178129 29:330811 31:229023 32:941539 33:80178 49:280623 
0.4736328125 1:1641776 2:1257616 3:29660 4:593200 6:29660 7:29660 8:563540 9:29660 11:29660 12:59320 13:177960 14:29660 15:59320 16:177960 17:1161000 18:391796 19:29660 20:59320 21:88980 22:29660 23:29660 24:59320 25:830480 26:59320 28:118640 29:919460 30:29660 31:326260 32:652520 33:143504 34:71752 49:71752 50:107628 
0.4736328125 1:762972 2:598636 3:61626 4:760054 5:41084 6:20542 7:61626 8:677886 9:41084 10:20542 12:20542 13:41084 15:82168 16:123252 17:381486 18:82168 19:20542 20:82168 22:20542 24:102710 25:575176 26:20542 27:61626 28:123252 29:718970 30:41084 31:82168 32:308130 33:89988 49:359952 
0.4736328125 1:2191309 2:2647773 3:32625 4:1076625 5:32625 6:130500 7:32625 8:293625 9:32625 13:32625 17:1507900 18:751805 20:424125 24:228375 25:554625 26:65250 28:97875 29:163125 30:32625 32:228375 33:98733 34:32911 49:197466 50:98733 
0.4736328125 1:1189418 2:692086 3:52058 4:884986 5:182203 6:130145 7:52058 8:390435 9:52058 12:78087 13:52058 14:52058 15:26029 16:78087 17:366260 18:143623 19:52058 20:104116 21:26029 23:26029 24:156174 25:1301450 26:104116 27:52058 28:130145 29:520580 30:78087 31:78087 32:442493 33:79014 49:395070 50:39507 
0.4736328125 1:1030149 2:438274 3:58710 4:1232910 5:234840 6:117420 7:146775 8:704520 9:88065 12:117420 13:88065 16:88065 17:1098409 18:153601 19:58710 20:146775 21:29355 24:146775 25:910005 26:117420 27:58710 28:117420 29:792585 30:117420 31:117420 32:499035 33:72362 34:108543 49:325629 50:108543 
0.4736328125 1:976664 2:675836 3:53704 4:537040 5:134260 7:107408 8:1745380 9:53704 13:80556 14:26852 15:26852 16:349076 17:583448 18:65536 20:26852 24:53704 25:725004 27:26852 28:26852 29:1530564 30:26852 31:375928 32:483336 33:116052 34:116052 49:154736 
0.4736328125 1:1087106 2:163192 3:97656 4:415038 5:195312 6:48828 7:122070 8:634764 9:48828 10:48828 13:73242 14:24414 15:73242 16:219726 17:531994 18:97656 20:97656 23:73242 24:122070 25:732420 26:48828 28:48828 29:903318 30:146484 31:341796 32:634764 33:246732 34:82244 49:411220 50:41122 
0.4736328125 1:1372364 2:979148 3:47880 4:742140 5:119700 6:23940 7:23940 8:454860 9:71820 10:23940 12:23940 13:71820 14:23940 15:23940 16:95760 17:579648 18:286084 20:95760 21:47880 22:23940 24:23940 25:718200 26:167580 27:71820 28:71820 29:454860 30:47880 31:95760 32:550620 33:83192 49:41596 50:41596 
0.4736328125 1:1695908 2:2129264 3:61522 4:1076635 5:215327 8:892069 9:123044 10:30761 12:30761 13:30761 14:30761 15:30761 16:30761 17:1063281 18:266158 19:61522 20:215327 21:61522 23:30761 24:61522 25:1168918 26:153805 28:184566 29:461415 30:153805 31:30761 32:399893 33:34775 49:34775 
0.4736328125 1:1473015 2:655360 3:39198 4:333183 5:58797 6:39198 8:607569 9:97995 11:39198 12:19599 13:78396 15:78396 16:117594 17:523670 18:124333 19:39198 20:117594 21:19599 22:39198 23:19599 24:58797 25:293985 26:19599 27:19599 28:39198 29:587970 30:97995 31:117594 32:685965 33:137811 49:137811 50:45937 
0.4736328125 1:827143 2:393216 3:76348 4:458088 6:38174 7:95435 8:515349 9:152696 10:19087 11:38174 12:57261 13:19087 14:38174 15:152696 16:152696 17:264681 18:76348 19:38174 21:19087 24:57261 25:553523 26:57261 27:19087 28:57261 29:725306 30:38174 31:209957 32:572610 33:92898 49:139347 50:46449 
0.4736328125 1:1659237 2:1632513 4:534945 5:28155 6:28155 17:2184956 18:872805 20:112620 25:900960 26:112620 28:28155 30:28155 32:28155 33:37381 49:485953 50:186905 
0.4736328125 1:1410287 2:2243380 3:33189 4:2090907 5:33189 6:33189 8:165945 9:66378 16:33189 17:1935417 18:196608 20:199134 24:66378 25:1128426 26:165945 27:33189 28:132756 29:331890 30:33189 31:165945 32:132756 33:129388 34:32347 49:711634 50:161735 
0.4736328125 1:572813 2:507673 3:16351 4:408775 5:130808 6:32702 7:65404 8:735795 9:98106 12:16351 13:16351 14:32702 16:81755 17:376601 18:49053 19:16351 20:16351 21:32702 24:81755 25:441477 26:49053 28:81755 29:474179 30:49053 31:147159 32:343371 33:245925 49:491850 50:98370 
0.4736328125 1:898658 2:349412 3:49916 4:274538 5:149748 6:24958 7:74874 8:898488 9:74874 11:24958 12:49916 13:99832 14:99832 15:74874 16:374370 17:246524 18:40578 19:24958 20:49916 21:49916 22:49916 24:24958 25:224622 26:124790 27:24958 28:74874 29:1272858 30:24958 31:399328 32:723782 33:121734 34:40578 49:243468 
0.4736328125 1:2258064 2:2548160 3:150336 4:1202688 5:37584 6:37584 8:338256 9:75168 13:150336 15:37584 16:37584 17:2163632 18:739216 20:375840 24:225504 25:601344 26:225504 28:150336 29:488592 30:75168 31:75168 32:451008 33:27952 34:55904 49:167712 50:27952 
0.4736328125 1:1381512 2:455948 3:25934 4:907690 5:77802 7:51868 8:544614 9:103736 10:25934 12:51868 13:51868 14:25934 16:103736 17:858626 18:259340 20:155604 22:25934 24:103736 25:985492 26:77802 27:25934 28:129670 29:259340 30:77802 31:129670 32:414944 49:356418 50:79204 
0.4736328125 1:1402900 2:668682 3:89970 4:719760 5:89970 7:89970 8:989670 9:119960 10:119960 11:29990 12:29990 13:59980 15:89970 16:269910 17:469864 18:226598 20:59980 24:149950 25:659780 26:59980 27:89970 28:119960 29:1079640 30:29990 31:329890 32:839720 34:35546 49:142184 50:106638 
0.4736328125 1:1853198 2:1709389 3:30947 4:959357 5:61894 6:92841 7:30947 8:278523 9:92841 10:61894 12:30947 13:30947 17:2239130 18:688118 19:30947 20:92841 21:30947 22:30947 24:123788 25:526099 26:154735 28:123788 29:185682 30:61894 31:92841 32:278523 33:69178 49:380479 50:34589 
0.4736328125 1:1167816 2:1437940 3:25820 4:877880 5:180740 8:361480 9:51640 12:25820 13:25820 14:25820 17:711036 18:222428 19:51640 20:206560 21:51640 23:25820 24:129100 25:516400 26:154920 28:154920 29:335660 30:129100 31:51640 32:284020 49:317728 50:39716 
0.4736328125 1:1078340 2:631604 3:208348 4:1190560 5:89292 6:59528 7:119056 8:1637020 9:29764 12:59528 13:59528 14:59528 16:297640 17:685124 18:137080 20:59528 21:59528 22:29764 24:119056 25:714336 26:89292 28:148820 29:803628 30:89292 31:208348 32:386932 33:178860 34:35772 49:286176 50:35772 
0.4736328125 1:1780139 2:830767 3:148806 4:818433 5:74403 6:124005 7:24801 8:570423 9:49602 10:24801 12:24801 13:49602 16:99204 17:860835 18:311746 19:24801 20:124005 21:24801 24:99204 25:744030 26:74403 28:198408 29:570423 30:99204 31:74403 32:396816 34:40735 49:488820 50:40735 
0.4736328125 1:1838698 2:1572864 3:28614 4:915648 5:114456 7:85842 8:486438 9:200298 10:85842 11:28614 13:114456 15:85842 16:114456 17:1209190 18:344296 20:114456 21:57228 24:228912 25:486438 26:57228 27:28614 28:143070 29:772578 30:171684 31:314754 32:715350 33:36922 49:184610 50:147688 
0.4736328125 1:1096482 2:560166 3:47700 4:787050 5:95400 6:23850 7:47700 8:810900 9:119250 10:23850 12:47700 14:71550 15:23850 16:71550 17:601852 18:172758 19:23850 20:47700 21:95400 23:47700 24:23850 25:834750 26:95400 28:71550 29:763200 30:119250 31:71550 32:477000 33:41686 49:250116 
0.4736328125 1:1966342 2:1997669 3:98697 4:1151465 5:65798 6:32899 7:65798 8:559283 9:98697 10:65798 12:65798 13:32899 16:296091 17:1474691 18:621675 19:32899 20:131596 21:32899 22:32899 24:131596 25:1118566 26:32899 28:164495 29:526384 30:32899 31:230293 32:592182 33:163185 34:97911 49:587466 
0.4736328125 1:1247208 2:564995 3:49658 4:869015 5:24829 7:49658 8:869015 9:124145 12:24829 13:124145 15:124145 16:248290 17:540166 18:115194 20:173803 24:74487 25:521409 26:74487 28:24829 29:1142134 30:24829 31:173803 32:595896 33:81414 34:81414 49:407070 
0.4736328125 1:998464 2:322140 3:92040 4:690300 5:23010 6:46020 7:69030 8:529230 9:46020 10:23010 12:69030 13:46020 15:46020 16:253110 17:433696 18:69030 19:69030 20:161070 21:23010 23:69030 24:46020 25:483210 26:92040 27:23010 28:92040 29:483210 30:92040 31:161070 32:552240 33:85052 34:42526 49:127578 
0.4736328125 1:2116336 2:956756 3:29660 4:800820 5:59320 6:59320 8:326260 9:29660 13:29660 14:29660 16:88980 17:1170592 18:647724 20:88980 21:59320 24:207620 25:889800 26:296600 28:88980 29:296600 30:88980 31:59320 32:355920 34:35876 49:215256 50:71752 
0.4736328125 1:1192614 2:604440 3:120228 4:400760 5:160304 6:40076 7:60114 8:541026 9:40076 10:20038 12:20038 13:20038 14:40076 15:100190 16:260494 17:231262 18:156532 19:20038 20:20038 21:20038 22:20038 23:20038 24:40076 25:360684 26:40076 27:40076 28:120228 29:480912 30:40076 31:320608 32:761444 33:45498 34:45498 49:318486 50:90996 
0.4736328125 1:1929170 2:994664 4:479094 5:45628 6:45628 7:45628 8:684420 9:45628 13:68442 15:22814 16:136884 17:1521424 18:416030 19:22814 20:136884 21:22814 22:22814 23:22814 24:68442 25:866932 26:68442 28:68442 29:570350 30:91256 31:91256 32:342210 33:299054 34:85444 49:213610 50:213610 
0.4736328125 1:688502 2:351246 3:51546 4:824736 5:180411 6:25773 7:103092 8:618552 9:51546 11:25773 13:103092 14:25773 15:77319 16:489687 17:416782 19:51546 20:51546 21:25773 23:25773 24:206184 25:876282 26:103092 27:25773 28:51546 29:644325 30:51546 31:360822 32:567006 33:79526 49:516919 
0.4736328125 1:1375761 2:1113617 3:63390 4:1236105 5:31695 8:348645 9:31695 10:31695 13:95085 15:31695 16:31695 17:860057 18:507120 20:221865 21:31695 23:31695 24:95085 25:982545 26:126780 27:63390 28:126780 29:507120 30:63390 31:221865 32:221865 33:33841 34:67682 49:338410 50:33841 
0.4736328125 1:1533478 2:1014041 3:49666 4:223497 5:99332 6:24833 7:24833 8:297996 9:198664 10:49666 12:49666 14:49666 15:24833 16:273163 17:1086484 18:322829 19:49666 20:148998 21:24833 22:24833 23:24833 24:173831 25:273163 26:74499 27:24833 28:49666 29:322829 30:74499 31:99332 32:645658 33:81406 49:529139 
0.4736328125 1:874431 2:560434 3:36146 4:885577 5:90365 7:36146 8:379533 9:54219 12:18073 13:90365 16:54219 17:411289 18:180730 19:18073 20:72292 22:18073 24:36146 25:415679 26:54219 28:18073 29:506044 30:72292 31:379533 32:361460 33:47463 34:189852 49:284778 50:47463 
0.4736328125 1:997866 2:393216 3:110788 4:609334 5:166182 6:27697 7:110788 8:858607 9:166182 12:55394 13:138485 14:27697 15:27697 16:332364 17:576953 18:131072 19:27697 20:83091 23:27697 24:83091 25:526243 26:27697 27:27697 28:193879 29:997092 30:83091 31:470849 32:720122 33:75678 49:491907 50:75678 
0.4736328125 1:998040 2:591280 3:52720 4:685360 5:52720 6:52720 7:105440 8:790800 9:26360 11:52720 13:79080 14:26360 15:131800 16:342680 17:472296 18:302048 19:79080 20:26360 21:79080 22:26360 23:26360 24:131800 25:922600 26:105440 28:26360 29:632640 31:316320 32:553560 33:78352 49:313408 50:39176 
0.4736328125 1:1388848 2:786432 3:71832 4:790152 5:167608 6:47888 7:47888 8:622544 9:167608 10:23944 12:71832 13:95776 15:95776 16:407048 17:607472 18:386920 20:143664 21:23944 22:47888 23:23944 24:71832 25:263384 26:47888 28:23944 29:407048 30:23944 31:526768 32:742264 33:166368 49:582288 50:41592 
0.4736328125 1:1139233 2:1211897 3:127335 4:764010 5:76401 6:50934 7:76401 8:229203 9:25467 13:76401 14:25467 15:25467 16:152802 17:1041102 18:141937 20:152802 21:50934 22:50934 23:25467 24:101868 25:891345 26:76401 28:127335 29:432939 30:101868 31:203736 32:382005 33:80138 34:40069 49:120207 
0.4736328125 1:1821952 2:1258304 3:24032 4:937248 5:24032 6:48064 8:312416 9:48064 13:48064 16:24032 17:1603456 18:666272 19:24032 20:240320 23:24032 24:168224 25:744992 26:96128 27:24032 28:144192 29:408544 30:72096 31:96128 32:240320 49:290528 50:124512 
0.4736328125 1:1421973 2:1111470 3:39903 4:478836 5:199515 6:119709 7:199515 8:718254 9:239418 10:119709 11:39903 13:39903 15:159612 16:359127 17:1504686 18:675444 20:39903 21:39903 24:39903 25:798060 26:119709 27:79806 28:119709 29:678351 30:39903 31:837963 32:917769 33:51266 34:25633 49:384495 50:51266 
0.4736328125 1:1337504 2:385380 3:25692 4:693684 5:179844 6:128460 7:51384 8:616608 9:51384 11:25692 12:25692 13:77076 15:51384 16:282612 17:587212 18:102768 19:25692 20:154152 24:154152 25:642300 26:77076 27:51384 28:128460 29:642300 30:128460 31:102768 32:565224 33:199220 34:39844 49:398440 50:119532 
0.4736328125 1:1263208 2:860980 3:20562 4:328992 5:82248 6:20562 7:41124 8:781356 9:82248 11:20562 12:20562 13:61686 14:20562 15:20562 16:123372 17:799294 18:233882 19:20562 20:41124 21:41124 24:102810 25:760794 26:41124 28:82248 29:205620 30:123372 31:205620 32:431802 33:89948 34:44974 49:314818 50:44974 
0.4736328125 1:1731784 2:2012672 4:303648 5:50608 6:75912 8:126520 9:25304 10:50608 15:50608 16:25304 17:1261384 18:546312 20:75912 21:25304 24:75912 25:531384 26:177128 28:50608 29:227736 30:101216 31:303648 32:177128 33:160928 49:321856 50:120696 
0.4736328125 1:1607556 2:1083268 3:23130 4:647640 5:69390 7:69390 8:254430 9:115650 10:46260 11:23130 13:69390 14:69390 15:69390 16:346950 17:1079414 18:346956 19:46260 20:185040 21:46260 22:23130 23:23130 24:92520 25:531990 26:69390 27:46260 28:92520 29:370080 30:23130 31:208170 32:531990 33:169624 49:636090 50:84812 
0.4736328125 1:1463878 2:998023 3:27635 4:939590 5:82905 6:55270 7:55270 8:442160 9:55270 14:55270 16:248715 17:580335 18:258981 19:27635 20:193445 21:55270 22:27635 24:138175 25:525065 26:82905 29:469795 30:82905 31:82905 32:580335 33:37901 34:37901 49:113703 
0.4736328125 1:1997735 2:1102571 3:76335 4:229005 5:50890 6:76335 7:25445 8:407120 9:76335 12:76335 13:127225 14:25445 15:25445 16:101780 17:1332318 18:469551 19:76335 20:152670 21:50890 22:25445 24:127225 25:458010 26:229005 27:50890 28:152670 29:458010 30:101780 31:127225 32:508900 34:40091 49:240546 50:80182 
0.4736328125 1:2530411 2:2531659 4:738216 5:61518 6:30759 7:30759 8:123036 17:1876436 18:1246432 20:61518 22:61518 24:61518 25:153795 26:246072 28:61518 29:123036 30:61518 32:30759 33:104331 34:34777 49:382547 50:139108 
0.4736328125 1:1576625 2:618442 4:994323 5:241048 7:90393 8:542358 9:60262 12:30131 13:90393 14:30131 15:90393 16:301310 17:992075 18:125798 20:60262 21:30131 23:90393 24:120524 25:693013 26:60262 27:60262 28:60262 29:693013 30:60262 31:241048 32:964192 33:141620 34:35405 49:247835 50:35405 
0.4736328125 1:1552109 2:477830 3:116145 4:743328 5:116145 7:139374 8:813015 9:139374 12:46458 13:92916 15:185832 16:418122 17:769828 18:365836 20:92916 21:23229 24:46458 25:325206 26:23229 27:23229 29:766557 30:23229 31:371664 32:813015 34:211535 49:338456 50:42307 
0.4736328125 1:1209870 2:468816 3:75615 4:630125 5:75615 6:25205 8:655330 9:25205 10:75615 11:25205 12:50410 13:75615 14:25205 15:50410 16:352870 17:680565 18:90741 19:50410 20:75615 21:126025 23:50410 24:100820 25:478895 26:50410 27:100820 28:50410 29:504100 30:75615 31:403280 32:680535 33:80662 34:40331 49:282317 
0.4736328125 1:1940642 2:1196198 3:175614 4:760994 5:87807 6:58538 7:29269 8:175614 9:58538 10:29269 12:58538 13:58538 15:87807 16:146345 17:829697 18:496296 19:87807 20:175614 21:58538 24:58538 25:702456 26:175614 27:29269 28:146345 29:468304 30:117076 31:321959 32:702456 33:181335 34:36267 49:362670 50:36267 
0.4736328125 1:1072620 2:558705 3:79815 4:771545 5:53210 6:79815 7:26605 8:585310 9:159630 12:53210 13:26605 14:53210 15:26605 16:79815 17:571031 18:53210 19:53210 20:53210 21:26605 22:26605 24:26605 25:638520 26:133025 27:26605 28:159630 29:665125 30:212840 31:239445 32:532100 33:77862 49:233586 
0.4736328125 1:1255704 2:512752 3:95832 4:894432 5:63888 6:63888 7:63888 8:894432 9:95832 10:31944 12:31944 13:63888 14:95832 16:223608 17:642176 18:191664 19:31944 20:31944 21:31944 22:63888 24:127776 25:830544 26:95832 27:63888 28:191664 29:926376 30:63888 31:191664 32:606936 33:33592 34:33592 49:100776 50:67184 
0.4736328125 1:2035934 2:878832 3:111736 4:363142 5:139670 6:83802 7:55868 8:223472 9:27934 10:55868 13:55868 14:27934 15:55868 16:167604 17:1044296 18:467350 19:27934 20:223472 21:27934 22:55868 23:27934 24:111736 25:502812 26:279340 27:27934 28:251406 29:391076 30:55868 31:195538 32:530746 33:150408 34:37602 49:300816 
0.4736328125 1:1476339 2:1269057 3:154945 4:1332527 5:61978 7:30989 8:371868 9:123956 12:154945 13:30989 16:154945 17:1189289 18:92967 19:92967 20:123956 21:61978 23:30989 24:92967 25:1239560 26:30989 28:92967 29:805714 30:61978 31:123956 32:526813 33:138188 34:34547 49:552752 50:138188 
0.4736328125 1:1834804 2:655768 3:130868 4:687057 5:229019 6:32717 7:196302 8:654340 9:65434 12:32717 13:98151 14:32717 15:261736 16:654340 17:951037 18:393624 20:196302 23:32717 24:32717 25:785208 26:98151 27:32717 28:130868 29:1046944 30:32717 31:98151 32:1341397 33:32819 34:32819 49:229733 50:98457 
0.4736328125 1:1763360 2:842577 3:132165 4:185031 5:52866 6:105732 7:26433 8:687258 9:52866 10:26433 11:52866 12:26433 13:26433 14:132165 15:26433 16:79299 17:593103 18:171268 19:52866 20:105732 21:79299 23:79299 24:158598 25:158598 26:79299 27:52866 28:158598 29:660825 30:26433 31:237897 32:872289 33:39103 34:78206 49:273721 50:117309 
0.4736328125 1:1502032 2:1256896 3:89520 4:835520 5:89520 6:59680 8:566960 9:119360 13:119360 15:89520 16:417760 17:1012880 18:476880 20:119360 21:89520 22:29840 23:119360 24:89520 25:775840 26:29840 27:29840 28:89520 29:865360 30:179040 31:149200 32:507280 33:71392 34:71392 49:392656 
0.47265625 1:1850476 2:1944913 3:136228 4:1294166 5:136228 7:34057 8:238399 9:102171 12:34057 13:34057 16:68114 17:1423203 18:744641 20:272456 22:34057 23:102171 24:102171 25:1055767 26:272456 28:136228 29:544912 30:68114 31:170285 32:374627 49:220353 50:188874 
0.47265625 1:2083238 2:1249822 3:63990 4:831870 5:95985 6:159975 8:959850 9:255960 10:63990 13:63990 14:63990 16:351945 17:1548599 18:428303 19:31995 20:159975 21:95985 22:63990 23:31995 24:159975 25:287955 26:31995 27:159975 28:159975 29:383940 30:31995 31:159975 32:959850 33:100623 34:67082 49:503115 50:100623 
0.47265625 1:1537264 2:408184 3:132235 4:687622 5:132235 6:26447 7:52894 8:925645 9:52894 12:26447 13:26447 15:105788 16:264470 17:539256 18:302396 19:26447 20:79341 21:52894 22:26447 24:52894 25:528940 26:158682 28:185129 29:687622 30:26447 31:211576 32:608281 34:78178 49:234534 
0.47265625 1:1603459 2:851968 3:95540 4:525470 5:95540 6:23885 7:143310 8:668780 9:47770 11:23885 12:47770 13:71655 15:23885 16:334390 17:1298482 18:238259 19:23885 20:47770 23:47770 24:47770 25:501585 26:191080 27:71655 28:143310 29:310505 30:143310 31:286620 32:621010 33:83302 34:124953 49:458161 50:83302 
0.47265625 1:1163420 2:1314777 3:25403 4:812896 5:127015 6:101612 7:25403 8:762090 9:127015 10:25403 13:25403 16:127015 17:989656 18:298220 20:152418 21:50806 22:25403 24:76209 25:635075 26:25403 28:101612 29:635075 30:101612 31:279433 32:381045 33:40133 34:40133 49:120399 
0.47265625 1:839902 2:592427 3:187145 4:721845 5:160410 7:106940 8:614905 9:106940 12:53470 13:240615 15:160410 16:213880 17:757094 18:92271 20:53470 21:53470 22:26735 23:53470 24:26735 25:454495 27:26735 28:106940 29:908990 30:106940 31:588170 32:908990 33:155204 34:38801 49:232806 50:38801 
0.47265625 1:1066418 2:277750 3:125724 4:754344 5:62862 6:41908 7:20954 8:440034 9:83816 10:41908 11:20954 12:41908 13:20954 14:41908 15:41908 16:125724 17:641990 18:128398 20:83816 21:62862 24:62862 25:670528 26:83816 28:83816 29:209540 30:62862 31:104770 32:628620 49:178328 
0.47265625 1:1646668 2:1066046 3:190302 4:462162 5:135930 6:54372 7:135930 8:380604 9:135930 10:81558 11:27186 12:108744 13:54372 14:27186 15:27186 16:299046 17:567496 18:327680 19:27186 20:54372 21:54372 22:54372 24:54372 25:570906 26:81558 27:81558 28:244674 29:407790 30:217488 31:380604 32:842766 34:38350 49:383500 50:76700 
0.47265625 1:976654 2:437370 4:903898 5:116632 6:58316 7:58316 8:1224636 9:58316 12:58316 15:58316 16:87474 17:707012 18:174948 20:87474 21:29158 24:145790 25:787266 26:29158 27:29158 29:670634 30:116632 31:174948 32:583160 33:109134 49:436536 
0.47265625 1:2474597 2:2415660 3:34781 4:626058 5:104343 8:278248 10:34781 12:34781 16:34781 17:2097152 18:1066133 20:278248 22:69562 24:139124 25:730401 26:243467 28:104343 29:104343 30:104343 31:34781 32:139124 33:92265 49:369060 
0.47265625 1:1332228 2:1235400 3:90966 4:1425134 5:60644 6:30322 7:151610 8:636762 9:121288 11:30322 12:30322 13:60644 15:151610 16:181932 17:458752 18:222038 20:90966 21:90966 24:181932 25:454830 26:181932 27:30322 28:181932 29:363864 31:576118 32:727728 33:140856 49:211284 50:35214 
0.47265625 1:1236206 2:2988066 4:761156 5:138392 7:34598 8:311382 16:172990 17:2274146 18:580846 20:69196 22:34598 25:518970 26:69196 28:103794 29:207588 31:172990 32:172990 33:30938 34:92814 49:247504 50:30938 
0.47265625 1:1505821 2:717719 3:76737 4:383685 5:76737 6:51158 8:588317 9:127895 10:76737 12:51158 14:76737 15:51158 16:306948 17:1790204 18:131072 19:25579 20:51158 21:76737 22:25579 23:51158 24:51158 25:409264 26:127895 27:25579 28:102316 29:716212 30:127895 31:332527 32:690633 33:39957 34:79914 49:239742 50:39957 
0.47265625 1:1477424 2:1190464 3:92896 4:1114752 5:69672 6:116120 7:46448 8:394808 9:46448 15:23224 16:116120 17:819520 18:266280 19:69672 20:92896 21:23224 22:23224 23:46448 24:46448 25:650272 26:116120 27:69672 28:116120 29:348360 31:185792 32:371584 33:169248 34:42312 49:211560 50:84624 
0.47265625 1:1194563 2:437961 3:53634 4:858144 5:160902 7:26817 8:777693 9:53634 10:26817 12:26817 13:107268 15:134085 16:643608 17:908615 18:119170 20:53634 21:26817 24:53634 25:563157 26:53634 27:26817 28:214536 29:509523 30:53634 31:509523 32:509523 33:77438 34:38719 49:77438 50:77438 
0.47265625 1:1221003 2:674409 3:76689 4:613512 5:127815 6:25563 7:25563 8:843579 9:51126 12:25563 13:76689 15:51126 16:178941 17:543337 18:244477 19:25563 20:102252 22:51126 23:25563 25:511260 26:51126 27:25563 28:51126 29:996957 30:102252 31:204504 32:536823 49:119919 50:79946 
0.47265625 1:1834032 2:1765318 3:70916 4:319122 5:70916 6:35458 7:106374 8:354580 9:70916 10:35458 11:35458 13:70916 14:35458 15:35458 16:141832 17:1263526 18:567328 20:141832 21:70916 22:35458 23:35458 24:35458 25:1063740 26:177290 27:70916 28:35458 29:531870 30:106374 31:248206 32:673702 33:30078 49:601560 50:90234 
0.47265625 1:1906568 2:749198 3:56604 4:226416 5:198114 6:28302 7:84906 8:84906 9:198114 10:113208 11:84906 12:169812 13:113208 14:28302 15:226416 16:481134 17:524288 18:102770 19:141510 20:84906 21:56604 22:56604 23:28302 24:84906 25:113208 26:141510 27:56604 28:141510 29:198114 30:113208 31:537738 32:1528308 33:37234 49:335106 50:37234 
0.47265625 1:1126061 2:1102163 3:46346 4:301249 5:115865 6:23173 7:69519 8:1019612 9:92692 10:46346 11:46346 12:46346 13:46346 15:69519 16:254903 17:520305 18:258161 20:115865 21:46346 23:46346 24:46346 25:417114 26:69519 27:23173 28:69519 29:648844 30:46346 31:672017 32:579325 49:593082 
0.47265625 1:1285822 2:557000 3:171934 4:908794 5:49124 6:24562 7:24562 8:515802 9:24562 10:73686 12:24562 13:147372 16:98248 17:728934 18:204758 19:24562 20:24562 21:49124 22:24562 24:98248 25:810546 26:98248 27:24562 28:122810 29:442116 30:73686 31:122810 32:638612 33:122922 49:245844 
0.47265625 1:1967513 2:1126646 3:184074 4:674938 5:276111 6:92037 7:92037 8:644259 9:30679 12:30679 13:153395 14:30679 15:61358 16:122716 17:1267507 18:257966 19:61358 20:306790 21:61358 22:61358 24:92037 25:582901 26:153395 27:30679 28:184074 29:368148 30:153395 31:184074 32:797654 33:174285 34:104571 49:697140 50:174285 
0.47265625 1:1324798 2:1114112 3:120392 4:1294214 5:120392 6:120392 7:60196 8:1354410 9:30098 10:30098 11:30098 12:60196 13:60196 15:60196 16:120392 17:1376256 18:276222 20:60196 21:30098 24:60196 25:571862 26:90294 27:30098 28:30098 29:511666 30:120392 31:60196 32:541764 33:35438 34:35438 49:496132 50:35438 
0.47265625 1:1079432 2:624504 3:56866 4:995155 5:142165 7:56866 8:1762846 13:28433 14:28433 16:199031 17:690040 18:176845 20:85299 24:142165 25:1222619 26:56866 27:28433 28:170598 29:995155 30:85299 31:28433 32:255897 33:111309 49:296824 50:37103 
0.47265625 1:1802435 2:1840078 3:32963 4:1054816 5:131852 7:32963 8:461482 9:65926 10:32963 12:32963 13:32963 15:32963 16:164815 17:1575984 18:491715 20:230741 21:32963 22:32963 23:32963 24:32963 25:988890 26:164815 28:164815 29:494445 30:131852 31:296667 32:164815 34:65146 49:195438 
0.4736328125 1:1466995 2:1368088 3:58574 4:820036 5:87861 8:146435 17:1292712 18:380731 19:29287 20:117148 21:29287 24:87861 25:1522924 26:175722 27:29287 28:175722 29:468592 30:117148 32:29287 33:72498 49:144996 
0.4736328125 1:1584336 2:655360 3:104040 4:728280 5:83232 6:20808 7:20808 8:582624 9:41616 10:20808 12:20808 16:145656 17:666832 18:131072 19:62424 20:62424 22:20808 23:41616 24:41616 25:957168 26:145656 28:187272 29:312120 30:83232 31:124848 32:270504 33:134184 49:492008 50:134184 
0.4736328125 1:1749170 2:675446 3:75606 4:277222 5:126010 7:25202 8:327626 9:100808 10:126010 12:50404 13:75606 14:25202 16:50404 17:1048576 18:257082 19:50404 20:75606 21:126010 23:50404 24:100808 25:403232 26:100808 27:50404 28:201616 29:478838 30:126010 31:352828 32:756060 33:161336 34:40334 49:121002 50:121002 
0.4736328125 1:955660 2:636282 3:42900 4:536250 5:128700 7:42900 8:686400 11:21450 13:85800 15:64350 16:171600 17:804324 18:108436 20:85800 21:42900 23:21450 25:622050 26:42900 27:21450 28:171600 29:836550 31:278850 32:493350 33:44086 49:352688 50:44086 
0.4736328125 1:1906480 2:1208600 3:232344 4:929376 5:132768 6:66384 7:132768 8:630648 9:33192 12:66384 13:66384 16:265536 17:1572016 18:487704 19:33192 20:398304 24:199152 25:1095336 26:132768 27:33192 28:265536 29:564264 30:165960 31:66384 32:464688 33:64688 34:97032 49:194064 
0.4736328125 1:1237485 2:483345 3:49186 4:196744 5:24593 6:24593 7:73779 8:196744 9:49186 10:24593 11:24593 13:49186 14:49186 15:245930 16:664011 17:1368557 18:262280 19:24593 20:196744 21:49186 23:24593 25:467267 26:172151 27:24593 28:98372 29:147558 30:24593 31:442674 32:664011 33:122829 49:491316 
0.4736328125 1:1714134 2:1112942 3:56508 4:649842 5:56508 6:28254 7:141270 8:791112 9:56508 12:84762 13:141270 15:169524 16:226032 17:926532 18:253116 19:28254 20:169524 24:169524 25:565080 26:84762 27:28254 28:169524 29:452064 30:56508 31:819366 32:593334 34:37282 49:298256 50:37282 
0.4736328125 1:1592476 2:990694 3:28941 4:694584 5:115764 6:28941 7:57882 8:1128699 9:57882 12:28941 13:86823 15:28941 16:260469 17:1079192 18:262144 20:115764 21:86823 23:28941 24:115764 25:983994 26:57882 27:28941 28:57882 29:752466 30:115764 31:144705 32:636702 33:146380 34:36595 49:475735 50:36595 
0.4736328125 1:2471682 2:872913 3:28827 4:317097 5:115308 6:57654 7:86481 8:172962 9:115308 10:86481 11:57654 12:57654 14:28827 15:28827 16:461232 17:1229420 18:456051 20:259443 21:144135 24:115308 25:230616 26:144135 27:86481 28:201789 29:345924 30:115308 31:144135 32:893637 33:146836 34:73418 49:330381 50:73418 
0.4736328125 1:956760 2:358785 8:51342 15:1437576 16:1668615 17:677705 18:39865 29:51342 31:1976667 32:1386234 33:239190 49:518245 50:119595 
0.4736328125 1:1481024 2:1843264 3:106944 4:1354624 5:71296 8:534720 17:1890432 18:558848 20:106944 21:71296 24:71296 25:819904 26:356480 28:178240 29:320832 32:106944 33:59776 34:29888 49:89664 
0.4736328125 1:2191156 2:1197144 3:62274 4:145306 5:145306 6:20758 7:62274 8:249096 9:83032 10:41516 11:20758 12:186822 13:41516 14:62274 15:20758 16:166064 17:1827298 18:348438 19:20758 20:41516 21:124548 22:62274 24:83032 25:477434 26:124548 27:62274 28:166064 29:145306 30:103790 31:166064 32:581224 33:134334 34:89556 49:223890 
0.4736328125 1:1440781 2:727833 3:277029 4:861868 5:153905 6:30781 7:30781 8:246248 9:30781 10:61562 12:61562 13:30781 15:61562 16:215467 17:635490 18:262144 20:246248 21:61562 24:153905 25:1138897 26:92343 28:246248 29:984992 30:61562 31:184686 32:554058 33:34755 49:312795 50:34755 
0.4736328125 1:1159174 2:603754 3:68322 4:774316 5:91096 6:68322 7:68322 8:592124 9:22774 11:22774 12:45548 13:68322 15:22774 16:227740 17:558206 18:159418 19:22774 20:182192 21:22774 24:91096 25:523802 26:136644 27:22774 28:113870 29:387158 30:91096 31:91096 32:318836 33:128286 49:726954 50:42762 
0.4736328125 1:1769200 2:480552 3:109000 4:654000 5:87200 6:87200 7:21800 8:436000 9:174400 10:21800 12:43600 13:87200 14:43600 15:87200 16:327000 17:983176 18:153008 20:109000 21:21800 22:21800 24:43600 25:501400 26:43600 27:87200 28:218000 29:239800 30:109000 31:218000 32:632200 33:131208 34:131208 49:349888 50:131208 
0.4736328125 1:1258911 2:944854 3:106509 4:1136096 5:248521 6:71006 7:71006 8:1029587 9:106509 10:35503 12:35503 13:35503 16:142012 17:783749 18:90099 20:177515 21:106509 22:35503 24:71006 25:994084 26:106509 27:71006 28:142012 29:887575 30:142012 31:319527 32:781066 33:240264 49:600660 50:60066 
0.4736328125 1:1787360 2:1309980 3:40216 4:281512 5:80432 6:40216 8:140756 9:40216 10:40216 16:60324 17:1052308 18:578660 19:60324 20:201080 21:80432 22:40216 24:60324 25:482592 26:100540 27:60324 28:80432 29:140756 30:100540 31:40216 32:201080 33:227140 34:45428 49:635992 
0.4736328125 1:1363084 2:944987 3:66837 4:512417 5:44558 6:22279 7:44558 8:490138 9:133674 10:22279 13:89116 14:89116 15:22279 16:200511 17:349959 18:22279 19:22279 20:89116 21:89116 23:22279 24:44558 25:646091 26:44558 27:22279 28:22279 29:467859 30:66837 31:178232 32:824323 33:216285 49:735369 
0.4736328125 1:2023714 2:1165944 3:88026 4:498814 5:205394 6:146710 8:234736 9:58684 12:88026 16:88026 17:1219710 18:291486 19:58684 20:205394 21:58684 22:58684 23:29342 24:205394 25:1114996 26:293420 27:58684 28:293420 29:234736 30:117368 31:29342 32:381446 33:72388 34:108582 49:253358 50:217164 
0.4736328125 1:1991618 2:440780 4:412944 5:77427 6:25809 8:464562 9:103236 10:51618 11:25809 13:77427 14:51618 15:103236 16:232281 17:1153839 18:416998 19:25809 20:129045 21:25809 22:51618 23:25809 24:51618 25:593607 26:154854 27:25809 28:154854 29:258090 30:103236 31:258090 32:748461 33:238362 34:39727 49:357543 50:79454 
0.4736328125 1:1261855 2:672031 3:77556 4:387780 5:116334 6:38778 7:96945 8:407169 9:116334 11:19389 12:19389 13:58167 15:96945 16:329613 17:798452 18:220648 19:19389 20:155112 21:19389 23:19389 24:19389 25:252057 26:38778 27:58167 29:232668 30:38778 31:368391 32:639837 33:184588 34:46147 49:276882 50:92294 
0.4736328125 1:1315558 2:987878 3:62596 4:1283218 5:31298 6:93894 7:125192 8:657258 9:31298 12:31298 15:31298 16:156490 17:899864 18:353098 20:187788 21:31298 24:156490 25:1189324 26:125192 27:31298 28:93894 29:563364 30:31298 31:187788 32:312980 33:68476 49:239666 
0.4736328125 1:1032215 2:173887 3:99364 4:695548 5:49682 8:1068163 9:49682 12:24841 13:49682 14:24841 16:248410 17:725136 18:124205 21:49682 24:99364 25:621025 26:124205 27:24841 28:124205 29:645866 30:49682 31:74523 32:546502 33:162780 49:244170 
0.4736328125 1:2395992 2:2593470 3:35826 4:537390 5:35826 6:35826 7:35826 8:107478 9:35826 10:35826 16:35826 17:1978312 18:972548 20:143304 21:35826 23:35826 25:1468866 26:250782 28:179130 29:680694 30:35826 31:35826 32:143304 33:118840 34:29710 49:445650 50:148550 
0.4736328125 1:1419624 2:987280 3:104664 4:697760 5:34888 6:17444 7:17444 8:418656 9:34888 10:17444 12:17444 13:17444 15:104664 16:69776 17:1231496 18:82980 20:34888 21:17444 22:17444 24:69776 25:313992 26:104664 28:69776 29:191884 30:34888 31:226772 32:418656 33:144276 49:144276 
0.4736328125 1:1511118 2:882124 3:105464 4:738248 5:79098 7:79098 8:553686 9:26366 10:79098 12:26366 13:26366 15:26366 16:105464 17:1104340 18:302830 19:52732 20:105464 21:26366 22:26366 24:52732 25:369124 26:79098 27:79098 28:210928 29:316392 30:105464 31:210928 32:448222 34:78340 49:235020 50:78340 
0.4736328125 1:1424231 2:809526 3:99524 4:422977 5:99524 8:298572 9:174167 11:24881 12:74643 13:24881 14:49762 15:24881 16:149286 17:1008574 18:314346 19:24881 20:149286 21:24881 23:24881 24:149286 25:646906 26:174167 27:24881 28:124405 29:323453 30:49762 31:174167 32:373215 34:40655 49:121965 50:121965 
0.4736328125 1:1958048 2:845944 3:72975 4:681100 5:48650 6:24325 8:170275 9:24325 10:24325 13:24325 16:24325 17:641897 18:333111 19:24325 20:218925 21:48650 23:24325 24:170275 25:486500 26:218925 27:48650 28:121625 29:632450 30:72975 31:72975 32:243250 33:82422 49:412110 50:206055 
0.4736328125 1:839360 2:450872 3:63960 4:916760 5:63960 6:42640 7:42640 8:639600 9:85280 10:21320 12:42640 13:42640 16:149240 17:319800 18:150816 19:21320 20:42640 21:21320 23:21320 24:42640 25:469040 26:127920 28:42640 29:490360 30:42640 31:149240 32:469040 33:88432 49:176864 
0.4736328125 1:1874643 2:1345654 3:129505 4:984238 5:77703 6:25901 7:25901 8:492119 16:25901 17:1636833 18:577657 20:181307 21:51802 24:51802 25:1191446 26:103604 27:25901 28:25901 29:440317 30:77703 31:51802 32:284911 33:79270 34:39635 49:554890 50:79270 
0.4736328125 1:1324702 2:1018081 3:42118 4:1095068 5:42118 6:42118 7:42118 8:84236 9:42118 12:42118 14:21059 16:63177 17:910427 18:191890 20:84236 21:42118 22:21059 23:21059 24:42118 25:1116127 26:105295 28:126354 29:484357 31:42118 32:168472 33:133431 34:88954 49:667155 50:133431 
0.4736328125 1:983874 2:614186 4:596540 5:119308 6:59654 7:59654 8:1103599 9:119308 10:29827 11:89481 13:119308 15:89481 16:119308 17:506642 18:149135 20:149135 21:119308 23:59654 24:119308 25:805329 26:119308 27:29827 28:119308 29:984291 30:29827 31:149135 32:656194 33:71418 49:499926 
0.4736328125 1:665442 2:757776 3:126296 4:1452404 5:126296 6:94722 7:94722 8:536758 9:189444 10:31574 13:63148 15:94722 16:284166 17:568332 18:126296 19:31574 20:157870 21:31574 23:31574 24:189444 25:726202 26:63148 27:63148 28:63148 29:599906 30:94722 31:284166 32:568332 33:33962 49:67924 
0.4736328125 1:1054944 2:577792 3:92288 4:1015168 5:23072 8:530656 9:92288 13:23072 14:23072 16:115360 17:619264 18:315648 19:23072 20:23072 22:23072 24:115360 25:784448 26:92288 27:23072 28:92288 29:438368 30:46144 31:207648 32:276864 33:84928 34:42464 49:339712 50:84928 
0.4736328125 1:955516 2:626199 3:25887 4:491853 5:103548 6:51774 7:103548 8:1372011 9:25887 12:25887 13:258870 15:25887 16:232983 17:313918 18:129435 19:25887 20:51774 21:51774 24:51774 25:595401 26:25887 27:25887 28:129435 29:1009593 31:284757 32:543627 49:356841 50:39649 
0.4736328125 1:2272000 2:1139584 3:26400 4:316800 5:105600 6:26400 7:26400 8:290400 9:52800 13:52800 16:79200 17:1840576 18:642624 19:52800 20:79200 21:26400 22:52800 23:26400 24:26400 25:871200 26:422400 27:26400 28:132000 29:316800 30:105600 31:52800 32:396000 33:39136 34:39136 49:743584 50:117408 
0.4736328125 1:2015730 2:1315904 3:133930 4:750008 5:53572 6:26786 8:428576 10:80358 16:80358 17:821792 18:506076 19:26786 20:160716 21:26786 22:26786 23:26786 24:160716 25:214288 26:160716 27:53572 28:267860 29:214288 30:53572 31:26786 32:348218 33:77500 34:77500 49:503750 50:38750 
0.4736328125 1:1252879 2:825654 3:94332 4:306579 5:94332 6:23583 7:94332 8:565992 9:47166 10:47166 12:47166 13:141498 15:165081 16:518826 17:416799 18:173025 20:94332 21:23583 22:23583 23:47166 24:70749 25:306579 26:47166 27:47166 28:117915 29:282996 30:70749 31:565992 32:825405 33:125859 34:83906 49:251718 50:125859 
0.4736328125 1:870689 2:359171 3:220437 4:661311 5:31491 7:94473 8:1417095 9:220437 10:31491 12:62982 13:62982 15:62982 16:346401 17:322572 18:65536 19:62982 20:31491 21:157455 24:157455 25:629820 27:31491 28:125964 29:1448586 30:62982 31:283419 32:818766 33:34045 34:34045 50:34045 
0.4736328125 1:1683252 2:936664 3:55956 4:783384 5:55956 7:55956 8:923274 13:55956 15:27978 16:195846 17:1349040 18:413138 20:55956 21:27978 22:55956 23:27978 24:83934 25:783384 26:139890 27:27978 28:195846 29:951252 30:111912 31:195846 32:559560 33:37558 49:300464 50:112674 
0.4736328125 1:1796852 2:775434 3:23566 4:164962 5:141396 6:70698 7:47132 8:188528 9:141396 10:117830 12:47132 13:23566 14:47132 16:94264 17:1413064 18:460996 19:70698 20:141396 21:70698 22:94264 23:94264 24:47132 25:117830 26:259226 27:47132 28:235660 29:141396 30:47132 31:117830 32:589150 49:839400 50:41970 
0.4736328125 1:1633792 2:504448 3:146304 4:463296 5:170688 6:73152 8:316992 9:97536 13:24384 15:73152 16:170688 17:891584 18:531904 19:24384 20:146304 21:48768 22:73152 23:48768 24:97536 25:536448 27:73152 28:268224 29:438912 30:73152 31:219456 32:536448 33:123456 49:82304 50:82304 
0.4736328125 1:1296692 2:592530 3:88584 4:465066 5:88584 6:22146 8:664380 9:132876 10:44292 11:22146 12:88584 13:22146 15:22146 16:66438 17:811284 18:196608 20:44292 21:66438 22:22146 24:66438 25:597942 26:177168 28:66438 29:376482 30:66438 31:177168 32:642234 33:130170 49:520680 50:43390 
0.4736328125 1:1699274 2:1163899 3:78177 4:364826 5:208472 6:78177 7:52118 8:208472 9:130295 10:26059 13:104236 14:26059 16:338767 17:1296525 18:484811 19:52118 20:78177 21:52118 22:52118 23:26059 24:156354 25:312708 26:182413 27:52118 28:234531 29:156354 30:130295 31:234531 32:625416 33:78954 49:157908 50:118431 
0.4736328125 1:2046649 2:2748798 4:818188 8:116884 17:2482095 18:649111 20:321431 24:58442 25:584420 26:29221 28:29221 32:29221 33:145260 34:36315 49:290520 50:108945 
0.4736328125 1:1095744 2:799528 3:55048 4:1734012 7:55048 8:633052 9:55048 10:27524 11:27524 13:27524 16:192668 17:1053792 18:279180 19:27524 20:82572 21:55048 24:55048 25:633052 26:165144 27:27524 28:82572 29:467908 30:27524 31:110096 32:302764 33:38012 49:304096 
0.4736328125 1:1335046 2:1071026 3:159150 4:859410 5:31830 6:31830 7:95490 8:477450 9:95490 10:31830 12:31830 13:63660 15:159150 16:127320 17:1080406 18:297726 20:31830 21:31830 22:31830 24:159150 25:1050390 26:159150 27:95490 28:63660 29:668430 30:31830 31:763920 32:763920 33:33706 49:404472 50:67412 
0.4736328125 1:1612208 2:1373003 3:22939 4:688170 5:45878 6:22939 8:321146 9:114695 10:22939 17:976506 18:160573 19:22939 20:137634 21:45878 22:22939 24:45878 25:1009316 26:45878 27:22939 28:229390 29:298207 30:68817 31:206451 32:229390 33:85194 34:42597 49:511164 50:42597 
0.4736328125 1:1664385 2:2533770 4:453754 5:64822 7:32411 8:32411 9:32411 10:32411 12:32411 13:32411 17:2471804 18:584826 20:194466 22:64822 25:518576 26:194466 28:64822 29:259288 30:64822 31:97233 32:129644 33:66250 34:33125 49:265000 50:33125 
0.4736328125 1:1308760 2:1065450 3:97324 4:851585 5:24331 7:170317 8:413627 9:24331 10:48662 11:24331 12:24331 13:194648 14:24331 15:48662 16:170317 17:1218893 18:385759 19:48662 20:121655 21:72993 24:170317 25:486620 26:48662 27:97324 28:72993 29:583944 30:72993 31:145986 32:559613 33:206025 34:82410 49:247230 50:123615 
0.4736328125 1:1979505 2:2940679 3:31927 4:766248 17:2384464 18:1129219 20:159635 22:31927 25:510832 26:127708 27:31927 32:95781 33:67218 34:67218 49:537744 
0.4736328125 1:1452262 2:2141866 4:1082820 5:108282 7:144376 8:252658 13:144376 15:36094 16:144376 17:708576 18:397034 20:216564 24:72188 25:433128 26:108282 29:1155008 30:72188 31:830162 32:505316 34:29442 49:323862 50:29442 
0.4736328125 1:1564316 2:1122222 3:54796 4:1013726 6:82194 7:27398 8:547960 12:54796 16:82194 17:848242 18:493164 20:109592 22:54796 24:27398 25:876736 28:136990 29:493164 30:54796 31:27398 32:219184 33:38138 34:76276 49:305104 50:38138 
0.4736328125 1:2073648 2:1278920 3:59176 4:1065168 5:118352 6:59176 8:266292 10:29588 12:29588 13:29588 16:88764 17:1145636 18:295880 19:59176 20:147940 21:59176 24:118352 25:946816 26:325468 28:295880 29:207116 30:29588 31:29588 32:325468 33:35948 49:611116 50:35948 
0.4736328125 1:1368547 2:794693 3:49198 4:491980 5:147594 7:49198 8:811767 9:49198 12:24599 13:147594 15:122995 16:344386 17:425892 18:262144 20:73797 21:49198 24:49198 25:639574 26:172193 27:24599 28:49198 29:418183 30:73797 31:295188 32:836366 33:81874 34:40937 49:327496 50:122811 
0.4736328125 1:868488 2:853526 3:46444 4:719882 5:69666 6:69666 7:92888 8:766326 9:23222 11:23222 13:46444 14:23222 15:23222 16:185776 17:382384 18:289496 20:46444 21:23222 23:23222 24:69666 25:580550 26:69666 28:23222 29:905658 30:46444 31:255442 32:348330 49:296198 
0.4736328125 1:881848 2:633598 3:258210 4:671346 5:103284 7:103284 8:722988 9:77463 12:103284 13:25821 15:51642 16:258210 17:417070 18:103284 20:103284 21:25821 22:25821 23:25821 24:232389 25:516420 26:25821 28:154926 29:645525 30:77463 31:154926 32:568062 33:79430 49:119145 50:39715 
0.4736328125 1:1267973 2:961890 3:87580 4:459795 5:109475 6:21895 7:43790 8:175160 9:197055 10:21895 12:21895 13:43790 14:65685 16:109475 17:983487 18:327829 19:21895 20:43790 21:21895 22:21895 23:87580 24:109475 25:525480 26:87580 27:43790 28:131370 29:350320 30:65685 31:372215 32:525480 33:261846 49:305487 50:43641 
0.4736328125 1:1630712 2:566392 3:59312 4:1156584 5:177936 7:59312 8:474496 9:59312 12:29656 13:88968 14:59312 16:474496 17:672568 18:376008 19:59312 20:88968 21:59312 22:59312 23:59312 24:118624 25:830368 26:88968 27:118624 28:148280 29:563464 30:59312 31:385528 32:682088 33:107640 34:35880 49:251160 50:71760 
0.4736328125 1:1773904 2:2340655 3:66090 4:528720 5:99135 8:231315 9:132180 14:33045 16:33045 17:2009651 18:1053562 19:33045 20:99135 21:99135 23:33045 25:793080 26:165225 28:66090 29:132180 30:33045 31:33045 32:198270 33:97473 34:32491 49:454874 50:64982 
0.4736328125 1:1481634 2:464151 4:1205895 5:70935 6:47290 7:23645 8:378320 9:70935 13:23645 15:94580 16:260095 17:760738 18:296587 20:118225 21:47290 24:47290 25:1040380 26:47290 27:23645 28:47290 29:378320 30:47290 31:141870 32:401965 33:167564 34:41891 49:586474 50:41891 
0.4736328125 1:1513220 2:655664 3:27332 4:1229940 5:109328 7:54664 8:437312 9:54664 10:54664 12:81996 13:27332 16:27332 17:874320 18:158404 19:27332 20:191324 21:81996 22:54664 24:27332 25:1229940 26:81996 28:245988 29:382648 30:54664 32:382648 33:76408 49:191020 50:76408 
0.4736328125 1:2038400 2:1387936 3:30320 4:1030880 5:121280 6:60640 8:424480 9:30320 10:30320 17:1176640 18:226928 20:333520 21:30320 22:90960 24:181920 25:667040 26:181920 27:60640 28:121280 29:394160 30:60640 31:90960 32:363840 33:70432 49:352160 50:70432 
0.4736328125 1:1933970 2:1736986 4:394344 5:262896 6:32862 7:32862 8:262896 9:197172 10:65724 13:197172 14:32862 15:98586 16:295758 17:1801582 18:589072 20:131448 21:65724 23:65724 24:32862 25:821550 26:164310 27:98586 28:197172 29:657240 30:131448 31:230034 32:985860 34:65348 49:196044 50:98022 
0.4736328125 1:1863141 2:2592984 3:34313 4:1647024 8:68626 9:34313 17:2661610 18:649180 20:171565 24:34313 25:1475459 26:102939 28:137252 29:102939 30:137252 32:68626 33:31223 34:31223 49:405899 50:124892 
0.4736328125 1:1624271 2:1392791 3:62229 4:1057893 5:41486 7:62229 8:435603 9:41486 13:103715 15:124458 16:331888 17:1216926 18:310244 20:41486 22:20743 24:62229 25:580804 26:62229 28:82972 29:622290 30:41486 31:207430 32:456346 33:134379 34:44793 49:671895 50:179172 
0.4736328125 1:1553017 2:616058 3:78604 4:589530 5:78604 6:39302 7:58953 8:432322 9:98255 10:19651 12:78604 13:58953 15:19651 16:78604 17:563590 18:537454 20:58953 21:39302 24:78604 25:491275 26:98255 27:39302 28:137557 29:510926 31:157208 32:628832 33:137655 49:688275 50:45885 
0.4736328125 1:1958862 2:2063895 4:945297 5:140044 8:105033 9:35011 16:35011 17:1819695 18:607768 20:280088 21:35011 22:35011 24:70022 25:1085341 26:315099 28:210066 29:280088 30:35011 31:105033 32:175055 33:91575 34:30525 49:427350 50:30525 
0.4736328125 1:1268056 2:1092780 3:65844 4:504804 5:131688 6:21948 7:65844 8:658440 9:65844 11:21948 12:43896 13:87792 15:21948 16:153636 17:1135136 18:459060 19:21948 20:43896 22:43896 23:21948 24:21948 25:417012 26:87792 27:43896 28:43896 29:855972 30:65844 31:153636 32:482856 33:87176 34:87176 49:479468 50:87176 
0.4736328125 1:1550523 2:850776 3:148350 4:420325 5:222525 6:98900 7:49450 8:469775 9:123625 12:24725 13:123625 15:148350 16:197800 17:1302081 18:304147 19:24725 20:173075 21:74175 22:24725 23:24725 24:74175 25:420325 26:49450 27:74175 28:123625 29:296700 30:98900 31:346150 32:815925 33:40811 34:40811 49:367299 
0.4736328125 1:1108942 2:574686 3:75597 4:529179 5:100796 6:25199 7:75597 8:730771 9:176393 10:25199 11:25199 12:50398 13:100796 14:25199 16:201592 17:740925 18:257067 20:25199 21:25199 22:25199 23:50398 24:75597 25:554378 26:176393 27:50398 28:75597 29:579577 30:100796 31:302388 32:554378 33:80674 49:766403 
0.4736328125 1:1376256 2:745243 3:64035 4:832455 5:128070 6:85380 7:42690 8:576315 9:64035 12:21345 13:85380 15:21345 16:149415 17:723898 18:286491 20:42690 21:42690 24:42690 25:341520 26:64035 27:42690 28:85380 29:875145 30:21345 31:512280 32:533625 33:220955 34:88382 49:662865 50:88382 
0.4736328125 1:1740053 2:1324624 3:46545 4:449935 5:62060 6:46545 7:46545 8:325815 9:46545 10:31030 12:62060 13:15515 14:31030 15:31030 16:108605 17:1186600 18:489782 20:77575 21:46545 22:15515 23:31030 24:46545 25:403390 26:46545 28:31030 29:418905 30:93090 31:62060 32:356845 34:50021 49:750315 50:100042 
0.4736328125 1:1273889 2:643083 3:47518 4:665252 5:166313 6:23759 7:71277 8:237590 9:47518 10:23759 12:23759 13:142554 14:23759 15:142554 16:118795 17:606252 18:71277 19:23759 20:95036 21:47518 23:23759 24:71277 25:665252 27:47518 28:71277 29:427662 30:71277 31:332626 32:879083 33:334216 34:41777 49:250662 50:41777 
0.4736328125 1:974052 2:545559 3:128825 4:618360 5:51530 6:77295 7:180355 8:695655 9:51530 10:25765 11:25765 12:25765 13:77295 14:25765 15:51530 16:309180 17:339439 18:220126 19:25765 20:25765 21:51530 24:77295 25:463770 26:51530 27:103060 28:103060 29:489535 30:77295 31:644125 32:695655 49:636336 50:39771 
0.4736328125 1:2207419 2:1893378 3:48314 4:1111222 5:120785 6:24157 7:48314 8:748867 9:24157 10:48314 12:24157 15:72471 16:96628 17:1600373 18:627620 19:24157 20:96628 22:24157 23:24157 24:96628 25:845495 26:120785 27:48314 28:120785 29:314041 30:24157 31:96628 32:410669 33:41379 49:248274 50:124137 
0.4736328125 1:1661587 2:1740281 3:29191 4:846539 6:116764 7:29191 8:583820 9:116764 10:58382 12:29191 13:29191 14:29191 16:58382 17:2031616 18:408099 20:87573 21:87573 22:29191 23:29191 24:58382 25:788157 26:204337 27:29191 28:116764 29:554629 30:58382 31:87573 32:408674 33:36345 34:36345 49:545175 50:36345 
0.4736328125 1:1175402 2:1122124 3:53278 4:692614 6:26639 7:26639 8:586058 9:26639 11:79917 12:53278 13:26639 15:692614 16:479502 17:980917 18:198731 20:26639 25:479502 26:26639 27:106556 28:79917 29:426224 31:985643 32:879087 33:116691 34:38897 49:233382 50:38897 
0.4736328125 1:1704572 2:327998 3:98463 4:492315 5:32821 6:32821 7:131284 8:886167 9:65642 11:65642 12:65642 13:164105 14:32821 15:131284 16:459494 17:1179542 18:163575 19:32821 20:164105 21:32821 23:32821 24:65642 25:656420 26:196926 27:32821 28:98463 29:787704 30:98463 31:623599 32:1050272 33:98145 34:65430 49:261720 50:65430 
0.4736328125 1:1728762 2:1112955 3:25983 4:805473 5:181881 6:51966 7:25983 8:493677 9:77949 10:25983 13:103932 14:25983 15:233847 16:259830 17:760449 18:144642 20:25983 21:51966 23:25983 24:77949 25:415728 26:207864 27:51966 28:77949 29:545643 30:103932 31:285813 32:857439 33:276871 34:39553 49:632848 50:39553 
0.4736328125 1:1147870 2:492510 3:65668 4:1608866 5:131336 7:65668 8:558178 9:98502 10:32834 13:65668 15:32834 16:131336 17:591012 18:98502 19:32834 20:164170 21:65668 22:32834 23:131336 24:98502 25:1149190 26:65668 27:32834 28:131336 29:952186 30:98502 31:131336 32:525344 33:32702 49:130808 
0.4736328125 1:2315363 2:2582700 3:35001 4:1120032 5:70002 6:105003 8:315009 9:70002 16:105003 17:1642866 18:559289 20:315009 21:35001 24:70002 25:1715049 26:175005 27:70002 28:245007 29:420012 32:140004 49:335885 50:305350 
0.4736328125 1:1008794 2:507886 3:121720 4:486880 5:91290 7:91290 8:1217200 9:273870 11:30430 12:60860 13:243440 15:182580 16:426020 17:411920 18:175530 20:30430 21:30430 23:30430 24:91290 25:486880 26:60860 27:91290 28:152150 29:1156340 30:152150 31:578170 32:1004190 33:35106 49:105318 50:35106 
0.4736328125 1:588960 2:196320 8:52544 15:1366144 16:1996672 17:667488 18:314112 29:52544 31:1944128 32:1313600 33:196320 49:392640 50:39264 
0.4736328125 1:1059974 2:298342 3:81366 4:596684 5:81366 7:54244 8:759416 9:27122 11:54244 12:54244 13:108488 14:54244 15:54244 16:325464 17:700634 18:81366 20:54244 21:54244 24:108488 25:596684 26:54244 27:81366 28:81366 29:569562 30:81366 31:325464 32:813660 33:38414 49:345726 
0.4736328125 1:1711167 2:1218763 3:105684 4:634104 5:105684 6:52842 8:237789 9:26421 10:26421 12:26421 13:26421 15:26421 16:26421 17:1258911 18:197641 19:52842 20:79263 21:26421 22:105684 23:26421 24:132105 25:713367 26:158526 27:26421 28:184947 29:607683 30:132105 31:264210 32:528420 49:234690 50:78230 
0.4736328125 1:829911 2:524161 3:43606 4:348848 5:130818 6:21803 7:65409 8:893923 9:109015 10:21803 11:21803 12:43606 13:43606 15:174424 16:305242 17:371413 18:196735 23:43606 24:21803 25:261636 26:109015 28:43606 29:806711 30:21803 31:675893 32:675893 33:131199 34:43733 49:87466 50:43733 
0.4736328125 1:1671878 2:678908 3:48230 4:578760 5:72345 8:289380 9:24115 10:24115 11:24115 12:24115 13:72345 14:24115 16:48230 17:920625 18:313495 19:24115 20:96460 22:24115 23:24115 24:24115 25:578760 26:192920 27:48230 28:192920 29:554645 30:96460 31:192920 32:385840 33:124263 49:579894 50:41421 
0.4736328125 1:1837280 2:812286 3:123590 4:889848 5:24718 7:49436 8:321334 9:24718 12:24718 13:24718 14:24718 15:49436 16:24718 17:959458 18:622024 20:222462 22:24718 24:98872 25:1038156 26:98872 28:49436 29:617950 30:197744 31:49436 32:321334 49:163272 50:204090 
0.4736328125 1:942592 2:369280 3:95744 4:526592 5:71808 7:143616 8:909568 9:143616 10:23936 12:23936 13:47872 14:47872 15:95744 16:430848 17:775040 18:178944 19:47872 23:23936 24:71808 25:454784 26:143616 27:23936 28:23936 29:622336 30:23936 31:311168 32:718080 33:83200 34:83200 49:291200 50:41600 
0.4736328125 1:1409582 2:878480 3:39396 4:650034 5:59094 8:531846 9:19698 10:39396 13:59094 14:19698 15:19698 16:118188 17:498520 18:321238 19:59094 20:19698 21:19698 22:19698 23:19698 25:512148 26:59094 27:59094 28:39396 29:610638 30:59094 31:98490 32:453054 49:275028 50:91676 
0.4736328125 1:1145480 2:372911 3:60915 4:467015 5:40610 6:20305 7:101525 8:527930 9:81220 10:20305 12:81220 13:101525 15:40610 16:365490 17:223355 18:155998 20:40610 21:40610 23:40610 24:20305 25:609150 26:60915 27:20305 28:40610 29:568540 30:81220 31:365490 32:588845 33:316617 49:678465 50:45231 
0.4736328125 1:1122364 2:430977 3:130205 4:546861 5:130205 6:26041 7:104164 8:833312 9:52082 13:26041 14:26041 15:52082 16:260410 17:705708 18:130205 19:26041 20:104164 21:52082 24:130205 25:807271 26:208328 27:52082 28:104164 29:442697 30:130205 31:104164 32:520820 34:39495 49:355455 
0.4736328125 1:1179741 2:603670 3:165594 4:993564 5:137995 6:55198 8:662376 9:55198 10:27599 12:55198 13:55198 14:55198 16:248391 17:738157 18:165594 20:82797 21:27599 24:110396 25:579579 26:110396 27:82797 28:82797 29:1048762 30:137995 31:82797 32:469183 33:75874 49:341433 50:37937 
0.4736328125 1:1998748 2:1455138 3:93822 4:906946 5:62548 6:31274 8:125096 9:156370 12:31274 13:31274 16:125096 17:1674056 18:390228 19:31274 20:312740 21:93822 23:62548 24:187644 25:844398 26:62548 27:62548 28:218918 29:312740 30:156370 31:93822 32:437836 33:68524 34:34262 49:171310 50:102786 
0.4736328125 1:1393808 2:262144 3:53540 4:722790 5:80310 6:26770 7:107080 8:1311730 9:107080 10:26770 12:80310 13:107080 15:26770 16:481860 17:443978 18:131072 20:53540 21:133850 22:26770 23:26770 25:722790 26:26770 27:26770 28:107080 29:669250 30:80310 31:80310 32:776330 33:77532 34:38766 49:348894 50:77532 
0.4736328125 1:905514 2:393216 3:63138 4:336736 5:105230 7:105230 8:547196 9:21046 10:21046 12:21046 13:42092 14:21046 15:147322 16:441966 17:470206 20:63138 21:21046 22:42092 23:21046 24:84184 25:526150 26:21046 27:42092 28:84184 29:715564 30:63138 31:273598 32:589288 33:177960 49:177960 50:88980 
0.4736328125 1:1476000 2:913600 3:89984 4:967328 5:22496 6:22496 7:22496 8:427424 9:22496 10:44992 12:22496 13:22496 15:44992 16:67488 17:769792 18:153568 20:134976 21:22496 22:22496 24:44992 25:1034816 26:134976 27:44992 28:134976 29:314944 30:89984 31:202464 32:337440 49:215200 50:86080 
0.4736328125 1:1426544 2:577151 3:55438 4:831570 5:83157 6:27719 7:83157 8:859289 9:55438 11:27719 13:138595 14:55438 16:83157 17:509040 18:168889 19:55438 20:110876 22:55438 24:110876 25:471223 26:27719 27:27719 28:55438 29:748413 30:55438 31:526661 32:776132 33:37817 49:378170 50:113451 
0.4736328125 1:1214928 2:700272 3:44912 4:538944 5:112280 6:67368 7:67368 8:830872 9:44912 11:44912 12:22456 15:112280 16:202104 17:819880 18:467912 20:67368 24:44912 25:359296 26:22456 27:44912 28:67368 29:426664 30:89824 31:134736 32:449120 33:43080 49:387720 50:215400 
0.4736328125 1:930730 2:548410 4:651294 5:144732 6:48244 7:24122 8:1133734 9:72366 10:24122 12:48244 13:120610 14:24122 16:241220 17:213900 18:106950 20:48244 22:24122 24:24122 25:337708 26:96488 27:24122 28:48244 29:916636 31:337708 32:771904 33:248484 34:41414 49:165656 50:82828 
0.4736328125 1:911768 2:726937 3:71577 4:906642 5:71577 6:47718 7:95436 8:882783 9:119295 11:23859 13:71577 14:47718 15:47718 16:381744 17:732673 18:148890 20:23859 23:47718 24:71577 25:548757 28:119295 29:644193 31:238590 32:668052 33:41677 49:500124 50:41677 
0.4736328125 1:2424680 2:1601856 4:815424 5:101928 6:67952 8:271808 9:33976 10:33976 12:67952 13:33976 15:67952 16:203856 17:1463536 18:597072 19:101928 20:169880 21:33976 22:33976 23:33976 24:135904 25:747472 26:203856 27:67952 28:441688 29:67952 30:33976 31:101928 32:441688 33:157800 34:31560 49:189360 50:63120 
0.4736328125 1:1083084 2:491868 3:147978 4:641238 5:246630 6:24663 7:98652 8:517923 9:123315 10:24663 11:49326 12:24663 13:49326 15:98652 16:246630 17:459448 18:229724 19:24663 20:98652 22:24663 23:49326 24:123315 25:493260 26:98652 27:24663 28:123315 29:369945 30:73989 31:320619 32:789216 33:40873 49:245238 50:40873 
0.4736328125 1:1042460 2:494462 3:23826 4:1072170 5:95304 6:23826 7:23826 8:333564 12:23826 13:23826 15:23826 16:238260 17:881620 18:71478 19:47652 20:142956 23:23826 24:71478 25:667128 26:166782 28:95304 29:500346 30:95304 31:166782 32:333564 33:83420 49:542230 
0.4736328125 1:1495702 2:762708 3:47684 4:762944 5:47684 6:47684 7:47684 8:357630 9:23842 12:71526 13:23842 15:47684 16:166894 17:440900 18:405196 19:47684 20:119210 24:119210 25:786786 26:95368 27:71526 28:119210 29:762944 30:23842 31:71526 32:429156 33:125082 34:41694 49:458634 50:41694 
0.4736328125 1:1677746 2:1151434 3:33274 4:898398 5:99822 7:166370 8:665480 9:199644 12:33274 13:33274 15:133096 16:332740 17:1571852 18:299466 20:99822 21:33274 22:33274 24:133096 25:765302 26:166370 27:33274 28:366014 29:266192 30:33274 31:598932 32:532384 33:129048 34:64524 49:709764 
0.4736328125 1:1843177 2:1407064 3:62642 4:1158877 5:62642 6:31321 8:156605 9:93963 10:93963 14:62642 16:93963 17:1350210 18:347425 19:31321 20:219247 21:93963 22:62642 24:93963 25:970951 26:219247 28:31321 29:344531 30:93963 31:281889 32:281889 34:68430 49:239505 50:34215 
0.4736328125 1:2702978 2:1533132 3:29930 4:329230 5:59860 6:29930 8:329230 14:59860 16:29930 17:2339692 18:621304 20:239440 21:59860 22:29930 24:119720 25:628530 26:179580 27:59860 28:179580 29:59860 30:209510 31:59860 32:299300 33:71212 34:142424 49:249242 50:71212 
0.4736328125 1:1019351 2:495063 3:79588 4:517322 5:79588 6:59691 7:79588 8:656601 9:79588 10:19897 12:39794 13:39794 14:19897 15:79588 16:119382 17:671774 18:190763 20:39794 21:19897 22:59691 24:19897 25:238764 26:119382 27:39794 28:59691 29:596910 30:19897 31:139279 32:497425 33:45639 49:319473 50:91278 
0.4736328125 1:1795865 2:1142545 3:130052 4:910364 5:65026 6:32513 7:32513 8:585234 10:32513 12:65026 14:32513 16:97539 17:911384 18:390666 19:32513 20:162565 21:65026 22:65026 24:97539 25:975390 26:227591 28:130052 29:747799 30:32513 31:32513 32:390156 33:33023 34:33023 49:363253 50:99069 
0.4736328125 1:877920 2:585280 8:57912 15:1563624 16:1969008 17:365800 18:256060 29:57912 31:2258568 32:1505712 33:146320 34:73160 49:329220 50:36580 
0.4736328125 1:1315653 2:535422 3:136005 4:1115241 5:163206 6:54402 8:897633 9:108804 11:27201 12:81603 13:54402 15:27201 16:136005 17:698628 18:158273 20:163206 21:27201 22:54402 24:54402 25:1006437 26:136005 27:54402 28:108804 29:761628 30:81603 31:54402 32:408015 33:191675 34:76670 49:613360 
0.4736328125 1:2809633 2:1747265 4:174618 5:58206 6:58206 9:87309 12:58206 16:58206 17:1783481 18:1229873 19:29103 20:320133 21:29103 24:174618 25:378339 26:116412 27:29103 28:174618 29:174618 30:87309 31:29103 32:174618 33:182165 34:36433 49:364330 50:145732 
0.4736328125 1:2295328 2:2668332 3:21780 4:522720 5:43560 7:65340 8:1328580 9:65340 10:21780 13:65340 14:43560 15:152460 16:217800 17:3389816 18:1421776 19:21780 20:43560 21:21780 24:21780 25:413820 26:43560 28:21780 29:500940 30:43560 31:413820 32:544500 34:43756 50:43756 
0.4736328125 1:2620020 2:1326465 4:463811 5:27283 6:81849 8:136415 10:27283 17:1058694 18:1047724 19:27283 20:190981 21:27283 22:136415 24:163698 25:54566 26:190981 27:27283 28:136415 29:54566 30:27283 31:27283 32:163698 33:38253 34:76506 49:306024 50:76506 
0.4736328125 1:1343348 2:829164 3:110864 4:970060 5:166296 6:27716 7:55432 8:859196 9:110864 13:27716 15:27716 16:138580 17:877088 18:196608 19:27716 20:83148 21:55432 24:138580 25:582036 26:194012 27:55432 28:55432 29:803764 30:110864 31:55432 32:554320 33:75640 34:151280 49:151280 50:75640 
0.4736328125 1:1959490 2:609912 3:85624 4:556556 5:85624 6:42812 7:42812 8:385308 9:171248 10:85624 11:21406 12:21406 13:42812 15:21406 16:149842 17:561828 18:239420 19:21406 20:107030 21:64218 23:21406 24:107030 25:556556 26:85624 27:64218 28:85624 29:149842 30:192654 31:107030 32:599368 33:88260 34:132390 49:88260 50:88260 
0.4736328125 1:643540 2:579186 8:66718 15:1667950 16:2101617 17:321770 18:128708 29:66718 31:3035669 32:1601232 33:96531 49:418301 50:32177 
0.4736328125 1:1310368 2:891584 3:62656 4:1347104 5:156640 6:62656 7:62656 8:657888 9:62656 11:31328 12:31328 15:31328 16:93984 17:518528 18:413024 20:93984 21:31328 24:156640 25:501248 26:250624 27:31328 28:93984 29:1378432 30:93984 31:93984 32:313280 33:34208 34:34208 49:273664 50:136832 
0.4736328125 1:1459935 2:798725 3:29843 4:835604 5:89529 6:59686 7:149215 8:925133 9:119372 10:59686 11:89529 12:29843 13:208901 14:29843 15:149215 16:238744 17:821532 18:131072 19:29843 20:179058 21:29843 22:29843 23:29843 24:119372 25:447645 26:59686 27:29843 28:89529 29:626703 30:89529 31:507331 32:895290 33:142772 34:71386 49:249851 50:107079 
0.4736328125 1:1879894 2:808875 3:31293 4:970083 5:156465 7:62586 8:938790 9:31293 10:31293 11:31293 13:62586 16:125172 17:868511 18:458752 20:219051 21:31293 23:31293 24:125172 25:907497 26:156465 27:62586 28:281637 29:813618 30:93879 31:62586 32:344223 34:68486 49:239701 
0.4736328125 1:1925776 2:1117160 3:29240 4:584800 5:87720 6:29240 7:58480 8:497080 9:58480 10:29240 11:29240 12:29240 13:29240 14:29240 15:87720 16:233920 17:1172592 18:474896 19:58480 20:146200 22:29240 23:29240 24:146200 25:497080 26:29240 28:175440 29:263160 30:58480 31:321640 32:643280 33:145184 49:326664 50:72592 
0.4736328125 1:1483920 2:926278 4:598598 5:190463 6:54418 8:571389 9:163254 10:27209 11:27209 12:27209 13:136045 14:81627 15:54418 16:244881 17:622006 18:119954 20:136045 21:54418 24:81627 25:380926 26:81627 27:27209 28:54418 29:653016 30:108836 31:326508 32:843479 33:191635 49:536578 50:191635 
0.4736328125 1:1360808 2:1285160 3:29304 4:732600 5:175824 6:29304 7:87912 8:967032 9:58608 11:58608 12:29304 13:87912 14:29304 15:263736 16:615384 17:1174872 18:427856 21:29304 22:29304 23:29304 24:146520 25:732600 26:29304 28:117216 29:996336 30:29304 31:468864 32:849816 33:72464 34:72464 49:253624 50:72464 
0.4736328125 1:2376189 2:742026 3:76101 4:989313 5:76101 6:25367 7:25367 8:329771 9:25367 10:50734 12:50734 13:50734 15:101468 16:101468 17:997787 18:469317 19:50734 20:279037 21:50734 23:25367 24:101468 25:431239 26:101468 27:25367 28:152202 29:228303 30:25367 31:76101 32:507340 33:160676 34:40169 49:602535 50:80338 
0.4736328125 1:3069818 2:1246690 3:101288 4:126610 5:25322 6:75966 7:50644 8:50644 9:50644 10:25322 11:25322 12:25322 13:50644 15:50644 16:50644 17:1130510 18:789444 19:50644 20:75966 21:50644 22:202576 23:25322 25:177254 26:202576 28:101288 29:101288 30:227898 31:126610 32:607728 33:40214 49:643424 50:201070 
0.4736328125 1:1351204 2:552328 3:81132 4:270440 5:216352 6:135220 7:54088 8:108176 9:162264 10:27044 12:108176 13:81132 14:27044 15:162264 16:378616 17:374468 18:189308 19:27044 20:108176 21:81132 22:81132 24:135220 25:351572 26:54088 27:81132 28:108176 29:567924 30:54088 31:324528 32:1054716 33:76984 49:76984 50:38492 
0.4736328125 1:2417508 2:1208764 4:582520 5:87378 6:58252 7:58252 8:349512 9:58252 10:87378 13:58252 16:58252 17:1084976 18:691750 19:58252 20:145630 21:145630 22:29126 24:174756 25:524268 26:349512 27:58252 28:203882 29:233008 30:87378 31:145630 32:320386 34:36410 49:254870 50:72820 
0.4736328125 1:2072518 2:1794984 4:949902 5:30642 6:30642 7:91926 8:674124 9:122568 10:30642 15:30642 16:153210 17:1309842 18:546426 19:30642 20:91926 22:61284 24:122568 25:766050 26:122568 27:30642 28:306420 29:735408 30:91926 31:122568 32:490272 33:34894 49:418728 50:69788 
0.4736328125 1:2183936 2:1706472 3:29336 4:322696 5:29336 8:88008 9:29336 17:1597872 18:1223368 19:29336 20:88008 24:88008 25:674728 26:58672 28:29336 29:205352 30:88008 31:29336 32:58672 33:36200 34:36200 49:144800 50:36200 
0.4736328125 1:1634104 2:1694998 3:30274 4:666028 6:30274 8:454110 9:90822 12:60548 16:90822 17:983386 18:595158 20:211918 21:30274 24:60548 25:1271508 26:181644 27:60548 28:121096 29:333014 30:151370 32:90822 33:176310 49:176310 50:105786 
0.4736328125 1:1082265 2:478244 3:42514 4:786509 5:127542 7:63771 8:573939 9:63771 10:42514 11:21257 12:21257 13:42514 16:191313 17:371959 18:150564 20:63771 21:63771 22:21257 24:85028 25:701481 26:85028 28:148799 29:722738 30:85028 31:148799 32:318855 33:177116 34:88558 49:487069 
0.4736328125 1:2016504 2:2729712 3:30488 4:548784 5:60976 6:30488 7:30488 8:152440 9:91464 13:91464 15:152440 16:213416 17:1162840 18:794120 19:60976 20:335368 21:30488 22:60976 24:60976 25:609760 26:60976 28:30488 29:609760 30:91464 31:274392 32:487808 33:245336 34:35048 49:140192 50:70096 
0.4736328125 1:1371328 2:1117808 3:96456 4:1318232 5:96456 6:32152 7:32152 8:1028864 9:128608 12:64304 13:32152 14:32152 15:32152 16:128608 17:659056 18:97688 19:128608 20:64304 24:96456 25:1382536 26:96456 27:32152 28:160760 29:932408 30:96456 31:96456 32:578736 33:33384 34:33384 49:300456 
0.4736328125 1:2708753 2:2225192 3:32389 4:809725 5:64778 8:129556 9:32389 15:32389 16:32389 17:2414978 18:1239878 20:323890 22:97167 24:194334 25:421057 26:161945 28:97167 29:161945 30:32389 32:161945 33:99441 34:33147 49:265176 
0.4736328125 1:2377666 2:1630456 3:27086 4:812580 5:54172 7:27086 8:54172 9:54172 13:54172 16:54172 17:1471526 18:732260 20:325032 21:27086 22:54172 23:27086 24:27086 25:1381386 26:81258 27:54172 28:27086 29:704236 30:27086 31:81258 32:189602 34:76900 49:538300 50:192250 
0.4736328125 1:1749924 2:1135477 3:96675 4:773400 5:96675 6:32225 7:32225 8:354475 9:96675 10:32225 12:32225 16:32225 17:1232152 18:483375 20:193350 21:32225 22:64450 24:161125 25:966750 26:96675 28:322250 29:612275 30:96675 32:290025 33:66622 49:399732 50:66622 
0.4736328125 1:1435900 2:1722764 3:60434 4:1208680 5:30217 7:30217 8:423038 9:90651 10:60434 12:30217 13:90651 16:120868 17:418331 18:367706 19:30217 20:392821 22:30217 24:60434 25:785642 26:90651 27:30217 28:90651 29:423038 30:90651 31:90651 32:271953 33:35319 49:317871 50:35319 
0.4736328125 1:1552084 2:550880 3:111600 4:1116000 5:83700 6:27900 7:27900 8:809100 9:139500 10:27900 11:27900 13:55800 16:111600 17:673524 18:83700 20:167400 23:27900 24:83700 25:920700 26:139500 27:111600 28:27900 29:725400 30:111600 31:55800 32:613800 34:112908 49:526904 50:37636 
0.4736328125 1:1316545 2:734419 3:94455 4:818610 5:94455 6:31485 7:31485 8:1070490 9:125940 10:31485 11:31485 12:94455 13:31485 14:31485 15:31485 16:157425 17:799955 18:317416 19:31485 20:62970 21:31485 22:62970 24:125940 25:629700 26:62970 27:31485 29:818610 30:157425 31:251880 32:598215 34:68102 49:34051 
0.4736328125 1:1293370 2:1266600 3:106335 4:1595025 5:212670 6:70890 7:35445 8:602565 9:70890 10:106335 12:35445 13:35445 16:106335 17:726250 18:292235 20:106335 23:70890 24:141780 25:1382355 26:141780 28:177225 29:815235 30:35445 31:212670 32:638010 33:30091 34:30091 49:270819 
0.4736328125 1:2185328 2:1430472 3:29704 4:831712 5:118816 6:59408 7:59408 8:1604016 10:29704 13:29704 14:29704 16:89112 17:888736 18:369640 20:237632 24:118816 25:712896 26:148520 28:207928 29:653488 30:118816 32:445560 33:143328 49:394152 50:71664 
0.4736328125 1:1079936 2:591432 3:79608 4:1008368 5:26536 6:26536 8:955296 9:53072 12:79608 13:26536 15:26536 16:53072 17:1053400 18:132680 20:106144 21:26536 22:26536 23:26536 24:53072 25:928760 26:53072 27:53072 28:26536 29:636864 30:26536 31:265360 32:424576 33:117000 49:780000 50:78000 
0.4736328125 1:870904 2:806848 3:116500 4:326200 5:139800 7:116500 8:1281500 9:46600 12:23300 13:93200 15:139800 16:419400 17:980156 18:215544 19:23300 20:116500 21:23300 24:23300 25:279600 26:46600 27:23300 28:93200 29:1234900 30:23300 31:372800 32:535900 33:168944 34:42236 49:380124 50:126708 
0.4736328125 1:2774310 2:2000059 3:67958 4:747538 5:135916 6:33979 8:237853 9:101937 12:67958 17:1820405 18:1021863 19:33979 20:305811 21:101937 22:33979 24:101937 25:917433 26:237853 27:67958 28:169895 29:169895 30:135916 31:67958 32:373769 33:157785 49:378684 50:189342 
0.4736328125 1:1743200 2:1669508 3:29899 4:867071 5:59798 6:29899 7:29899 8:179394 9:59798 17:1827159 18:508283 19:29899 20:298990 21:29899 22:59798 24:89697 25:867071 26:209293 28:59798 29:239192 30:29899 31:89697 32:179394 33:249459 34:35637 49:285096 50:106911 
0.4736328125 1:1360215 2:688226 3:81969 4:655752 5:54646 6:27323 7:27323 8:1174889 9:81969 10:27323 13:27323 16:245907 17:1382191 18:305900 20:136615 21:54646 23:27323 24:54646 25:491814 26:136615 28:191261 29:437168 30:163938 31:136615 32:245907 49:496769 50:38213 
0.4736328125 1:371853 2:123951 8:48438 15:1017198 16:1913301 17:82634 18:41317 29:72657 31:2179710 32:968760 33:82634 49:206585 50:41317 
0.4736328125 1:1672120 2:925798 3:73830 4:812130 5:49220 7:49220 8:270710 9:73830 10:24610 12:24610 13:73830 15:73830 16:246100 17:1147016 18:622456 19:73830 20:221490 21:73830 22:24610 23:24610 24:24610 25:615250 26:172270 27:49220 28:98440 29:221490 30:123050 31:123050 32:566030 33:122778 34:40926 49:81852 
0.4736328125 1:2298042 2:1397004 4:513750 5:137000 6:34250 7:68500 8:342500 9:102750 10:34250 11:34250 12:34250 13:34250 16:102750 17:1334432 18:701466 19:68500 20:308250 21:34250 22:68500 23:34250 24:102750 25:1164500 26:308250 27:34250 28:102750 29:479500 30:137000 31:68500 32:376750 33:62572 49:469290 50:31286 
0.4736328125 1:1559084 2:1423699 3:23283 4:69849 5:93132 6:23283 8:93132 9:69849 11:46566 12:46566 13:46566 15:93132 16:46566 17:1368507 18:723491 20:162981 21:116415 22:46566 24:69849 25:349245 26:69849 28:116415 29:256113 30:46566 31:209547 32:395811 33:84506 49:338024 50:84506 
0.4736328125 1:1298308 2:1060988 3:124866 4:603519 5:62433 6:20811 7:41622 8:416220 9:83244 10:62433 11:20811 12:20811 13:104055 15:62433 16:312165 17:912208 18:175797 20:145677 24:41622 25:541086 26:20811 27:62433 28:166488 29:665952 31:270543 32:624330 33:89450 34:44725 49:894500 50:89450 
0.4736328125 1:1904462 2:1266738 3:47900 4:479000 5:23950 6:23950 8:47900 9:47900 17:1212524 18:405844 20:263450 22:71850 24:95800 25:742450 26:191600 27:23950 28:71850 29:431100 30:119750 31:23950 32:215550 33:83172 34:41586 49:374274 
0.4736328125 1:717387 2:214232 3:241011 4:241011 5:107116 6:107116 7:80337 8:1178276 9:187453 10:53558 11:26779 13:107116 15:80337 16:348127 17:461575 18:133895 19:26779 20:26779 21:26779 22:26779 23:26779 24:107116 25:508801 26:80337 27:26779 28:80337 29:776591 30:53558 31:321348 32:830149 33:193785 34:38757 49:232542 
0.4736328125 1:1791304 2:1114100 3:43688 4:524256 5:65532 6:109220 7:43688 8:611632 9:152908 10:65532 12:87376 13:21844 14:21844 16:262128 17:1048592 18:567984 19:43688 21:21844 22:21844 24:109220 25:393192 26:43688 27:21844 28:65532 29:436880 30:43688 31:218440 32:611632 33:262152 34:43692 49:480612 50:87384 
0.4736328125 1:867264 2:337984 3:272448 4:787072 5:30272 6:90816 7:30272 8:1180608 9:211904 13:90816 14:30272 15:242176 16:514624 17:277440 18:252160 20:211904 21:30272 24:60544 25:454080 28:121088 29:938432 31:454080 32:756800 33:35264 49:423168 50:35264 
0.4736328125 1:916272 2:371735 3:171570 4:629090 5:114380 6:114380 7:57190 8:1401155 9:85785 12:85785 13:28595 14:57190 15:142975 16:171570 17:208511 19:28595 21:85785 23:28595 24:228760 25:714875 27:28595 28:171570 29:743470 30:142975 31:228760 32:657685 33:110823 34:36941 49:147764 
0.4736328125 1:393604 2:127582 3:72904 4:236938 5:36452 6:18226 7:127582 8:473876 9:18226 11:18226 13:127582 14:18226 15:164034 16:492102 17:83762 18:36452 20:18226 23:18226 24:36452 25:346294 26:36452 27:36452 28:36452 29:473876 30:36452 31:601458 32:674362 49:47310 
0.4736328125 1:625752 2:543334 3:101464 4:735614 5:25366 6:50732 7:152196 8:1141470 9:50732 10:25366 12:50732 13:177562 15:126830 16:481954 17:298072 18:80340 20:76098 22:25366 24:25366 25:608784 26:25366 27:25366 28:25366 29:887810 30:50732 31:380490 32:659516 33:40170 49:120510 
0.4736328125 1:1762399 2:1546798 3:19735 4:868340 5:59205 7:19735 8:651255 10:39470 13:39470 14:19735 16:39470 17:1573606 18:713823 19:19735 20:59205 21:59205 24:19735 25:592050 26:78940 27:19735 28:118410 29:355230 30:98675 31:78940 32:138145 33:137403 34:45801 49:732816 50:45801 
0.4736328125 1:1313422 2:878010 3:134665 4:807990 5:53866 6:26933 7:80799 8:781057 9:26933 10:26933 12:26933 13:26933 15:53866 16:403995 17:704742 18:558407 20:80799 23:53866 24:53866 25:269330 26:53866 27:53866 28:107732 29:592526 30:134665 31:215464 32:377062 33:38603 49:386030 
0.4736328125 1:721245 2:721245 8:62382 15:2183370 16:1029303 17:480830 18:171725 29:62382 31:2526471 32:2120988 33:34345 34:34345 49:309105 
